{"learner":{"attributes":{"best_iteration":"999","best_score":"1.994585028489527","scikit_learn":"{\"_estimator_type\": \"regressor\"}"},"feature_names":[],"feature_types":[],"gradient_booster":{"model":{"cats":{"enc":[],"feature_segments":[],"sorted_idx":[]},"gbtree_model_param":{"num_parallel_tree":"1","num_trees":"1000"},"iteration_indptr":[0,1,2,3,4,5,6,7,8,9,10,11,12,13,14,15,16,17,18,19,20,21,22,23,24,25,26,27,28,29,30,31,32,33,34,35,36,37,38,39,40,41,42,43,44,45,46,47,48,49,50,51,52,53,54,55,56,57,58,59,60,61,62,63,64,65,66,67,68,69,70,71,72,73,74,75,76,77,78,79,80,81,82,83,84,85,86,87,88,89,90,91,92,93,94,95,96,97,98,99,100,101,102,103,104,105,106,107,108,109,110,111,112,113,114,115,116,117,118,119,120,121,122,123,124,125,126,127,128,129,130,131,132,133,134,135,136,137,138,139,140,141,142,143,144,145,146,147,148,149,150,151,152,153,154,155,156,157,158,159,160,161,162,163,164,165,166,167,168,169,170,171,172,173,174,175,176,177,178,179,180,181,182,183,184,185,186,187,188,189,190,191,192,193,194,195,196,197,198,199,200,201,202,203,204,205,206,207,208,209,210,211,212,213,214,215,216,217,218,219,220,221,222,223,224,225,226,227,228,229,230,231,232,233,234,235,236,237,238,239,240,241,242,243,244,245,246,247,248,249,250,251,252,253,254,255,256,257,258,259,260,261,262,263,264,265,266,267,268,269,270,271,272,273,274,275,276,277,278,279,280,281,282,283,284,285,286,287,288,289,290,291,292,293,294,295,296,297,298,299,300,301,302,303,304,305,306,307,308,309,310,311,312,313,314,315,316,317,318,319,320,321,322,323,324,325,326,327,328,329,330,331,332,333,334,335,336,337,338,339,340,341,342,343,344,345,346,347,348,349,350,351,352,353,354,355,356,357,358,359,360,361,362,363,364,365,366,367,368,369,370,371,372,373,374,375,376,377,378,379,380,381,382,383,384,385,386,387,388,389,390,391,392,393,394,395,396,397,398,399,400,401,402,403,404,405,406,407,408,409,410,411,412,413,414,415,416,417,418,419,420,421,422,423,424,425,426,427,428,429,430,431,432,433,434,435,436,437,438,439,440,441,442,443,444,445,446,447,448,449,450,451,452,453,454,455,456,457,458,459,460,461,462,463,464,465,466,467,468,469,470,471,472,473,474,475,476,477,478,479,480,481,482,483,484,485,486,487,488,489,490,491,492,493,494,495,496,497,498,499,500,501,502,503,504,505,506,507,508,509,510,511,512,513,514,515,516,517,518,519,520,521,522,523,524,525,526,527,528,529,530,531,532,533,534,535,536,537,538,539,540,541,542,543,544,545,546,547,548,549,550,551,552,553,554,555,556,557,558,559,560,561,562,563,564,565,566,567,568,569,570,571,572,573,574,575,576,577,578,579,580,581,582,583,584,585,586,587,588,589,590,591,592,593,594,595,596,597,598,599,600,601,602,603,604,605,606,607,608,609,610,611,612,613,614,615,616,617,618,619,620,621,622,623,624,625,626,627,628,629,630,631,632,633,634,635,636,637,638,639,640,641,642,643,644,645,646,647,648,649,650,651,652,653,654,655,656,657,658,659,660,661,662,663,664,665,666,667,668,669,670,671,672,673,674,675,676,677,678,679,680,681,682,683,684,685,686,687,688,689,690,691,692,693,694,695,696,697,698,699,700,701,702,703,704,705,706,707,708,709,710,711,712,713,714,715,716,717,718,719,720,721,722,723,724,725,726,727,728,729,730,731,732,733,734,735,736,737,738,739,740,741,742,743,744,745,746,747,748,749,750,751,752,753,754,755,756,757,758,759,760,761,762,763,764,765,766,767,768,769,770,771,772,773,774,775,776,777,778,779,780,781,782,783,784,785,786,787,788,789,790,791,792,793,794,795,796,797,798,799,800,801,802,803,804,805,806,807,808,809,810,811,812,813,814,815,816,817,818,819,820,821,822,823,824,825,826,827,828,829,830,831,832,833,834,835,836,837,838,839,840,841,842,843,844,845,846,847,848,849,850,851,852,853,854,855,856,857,858,859,860,861,862,863,864,865,866,867,868,869,870,871,872,873,874,875,876,877,878,879,880,881,882,883,884,885,886,887,888,889,890,891,892,893,894,895,896,897,898,899,900,901,902,903,904,905,906,907,908,909,910,911,912,913,914,915,916,917,918,919,920,921,922,923,924,925,926,927,928,929,930,931,932,933,934,935,936,937,938,939,940,941,942,943,944,945,946,947,948,949,950,951,952,953,954,955,956,957,958,959,960,961,962,963,964,965,966,967,968,969,970,971,972,973,974,975,976,977,978,979,980,981,982,983,984,985,986,987,988,989,990,991,992,993,994,995,996,997,998,999,1000],"tree_info":[0,0,0,0,0,0,0,0,0,0,0,0,0,0,0,0,0,0,0,0,0,0,0,0,0,0,0,0,0,0,0,0,0,0,0,0,0,0,0,0,0,0,0,0,0,0,0,0,0,0,0,0,0,0,0,0,0,0,0,0,0,0,0,0,0,0,0,0,0,0,0,0,0,0,0,0,0,0,0,0,0,0,0,0,0,0,0,0,0,0,0,0,0,0,0,0,0,0,0,0,0,0,0,0,0,0,0,0,0,0,0,0,0,0,0,0,0,0,0,0,0,0,0,0,0,0,0,0,0,0,0,0,0,0,0,0,0,0,0,0,0,0,0,0,0,0,0,0,0,0,0,0,0,0,0,0,0,0,0,0,0,0,0,0,0,0,0,0,0,0,0,0,0,0,0,0,0,0,0,0,0,0,0,0,0,0,0,0,0,0,0,0,0,0,0,0,0,0,0,0,0,0,0,0,0,0,0,0,0,0,0,0,0,0,0,0,0,0,0,0,0,0,0,0,0,0,0,0,0,0,0,0,0,0,0,0,0,0,0,0,0,0,0,0,0,0,0,0,0,0,0,0,0,0,0,0,0,0,0,0,0,0,0,0,0,0,0,0,0,0,0,0,0,0,0,0,0,0,0,0,0,0,0,0,0,0,0,0,0,0,0,0,0,0,0,0,0,0,0,0,0,0,0,0,0,0,0,0,0,0,0,0,0,0,0,0,0,0,0,0,0,0,0,0,0,0,0,0,0,0,0,0,0,0,0,0,0,0,0,0,0,0,0,0,0,0,0,0,0,0,0,0,0,0,0,0,0,0,0,0,0,0,0,0,0,0,0,0,0,0,0,0,0,0,0,0,0,0,0,0,0,0,0,0,0,0,0,0,0,0,0,0,0,0,0,0,0,0,0,0,0,0,0,0,0,0,0,0,0,0,0,0,0,0,0,0,0,0,0,0,0,0,0,0,0,0,0,0,0,0,0,0,0,0,0,0,0,0,0,0,0,0,0,0,0,0,0,0,0,0,0,0,0,0,0,0,0,0,0,0,0,0,0,0,0,0,0,0,0,0,0,0,0,0,0,0,0,0,0,0,0,0,0,0,0,0,0,0,0,0,0,0,0,0,0,0,0,0,0,0,0,0,0,0,0,0,0,0,0,0,0,0,0,0,0,0,0,0,0,0,0,0,0,0,0,0,0,0,0,0,0,0,0,0,0,0,0,0,0,0,0,0,0,0,0,0,0,0,0,0,0,0,0,0,0,0,0,0,0,0,0,0,0,0,0,0,0,0,0,0,0,0,0,0,0,0,0,0,0,0,0,0,0,0,0,0,0,0,0,0,0,0,0,0,0,0,0,0,0,0,0,0,0,0,0,0,0,0,0,0,0,0,0,0,0,0,0,0,0,0,0,0,0,0,0,0,0,0,0,0,0,0,0,0,0,0,0,0,0,0,0,0,0,0,0,0,0,0,0,0,0,0,0,0,0,0,0,0,0,0,0,0,0,0,0,0,0,0,0,0,0,0,0,0,0,0,0,0,0,0,0,0,0,0,0,0,0,0,0,0,0,0,0,0,0,0,0,0,0,0,0,0,0,0,0,0,0,0,0,0,0,0,0,0,0,0,0,0,0,0,0,0,0,0,0,0,0,0,0,0,0,0,0,0,0,0,0,0,0,0,0,0,0,0,0,0,0,0,0,0,0,0,0,0,0,0,0,0,0,0,0,0,0,0,0,0,0,0,0,0,0,0,0,0,0,0,0,0,0,0,0,0,0,0,0,0,0,0,0,0,0,0,0,0,0,0,0,0,0,0,0,0,0,0,0,0,0,0,0,0,0,0,0,0,0,0,0,0,0,0,0,0,0,0,0,0,0,0,0,0,0,0,0,0,0,0,0,0,0,0,0,0,0,0,0,0,0,0,0,0,0,0,0,0,0,0,0,0,0,0,0,0,0,0,0,0,0,0,0,0,0,0,0,0,0,0,0,0,0,0,0,0,0,0,0,0,0,0,0,0,0,0,0,0,0,0,0,0,0,0,0,0,0,0,0,0,0,0,0,0,0,0,0,0,0,0,0,0,0,0,0,0,0,0,0,0,0,0,0,0,0,0,0,0,0,0,0,0,0,0,0,0,0,0,0,0,0,0,0,0,0,0,0,0,0,0,0,0,0,0,0,0,0,0,0,0,0,0,0,0,0,0,0,0,0,0,0,0,0,0,0,0,0,0,0,0,0,0,0,0,0,0,0,0,0,0,0,0,0,0],"trees":[{"base_weights":[7.430785E-2,-1.9455222E0,2.5835898E0,-3.7738602E0,1.6856954E-1,1.1699915E1,1.058676E0,-2.15965E0,-5.236116E0,-7.030405E-1,1.070847E1,9.764793E-1,1.8342407E1,-1.5865893E0,6.0369606E0,-2.9967103E0,3.1165314E0,-3.5255675E0,-6.266621E0,1.2056697E1,-1.3502423E0,1.681339E1,-2.8110595E0,-3.6743598E0,5.243521E0,-2.110608E0,2.045266E1,-6.2964857E-1,-6.2156463E0,1.165634E1,-9.4862103E-1,-4.3614794E-2,-1.669334E-1,-1.4986181E-1,1.9113496E-1,-1.3443059E-1,1.5960391E-1,-1.3659114E-1,-2.359811E-1,4.9924668E-2,5.634437E-1,-2.0678094E-2,-2.2234E-1,-1.6848806E-2,6.288468E-1,7.885286E-2,-1.4161742E-1,-1.5633722E-1,5.4741013E-3,-2.8510278E-2,2.2817226E-1,-8.784974E-2,1.6411999E-3,6.963538E-1,-4.8434757E-2,1.9598782E-1,-3.5360735E-2,2.6630575E-2,-2.2232354E-1,5.9374595E-1,3.6686268E-2,2.3350725E-1,-9.4304554E-2],"categories":[],"categories_nodes":[],"categories_segments":[],"categories_sizes":[],"default_left":[0,0,0,0,0,0,0,0,0,0,0,0,0,0,0,0,0,0,0,0,0,0,0,0,0,0,0,0,0,0,0,0,0,0,0,0,0,0,0,0,0,0,0,0,0,0,0,0,0,0,0,0,0,0,0,0,0,0,0,0,0,0,0],"id":0,"left_children":[1,3,5,7,9,11,13,15,17,19,21,23,25,27,29,31,33,35,37,39,41,43,45,47,49,51,53,55,57,59,61,-1,-1,-1,-1,-1,-1,-1,-1,-1,-1,-1,-1,-1,-1,-1,-1,-1,-1,-1,-1,-1,-1,-1,-1,-1,-1,-1,-1,-1,-1,-1,-1],"loss_changes":[1.8842662E4,7.96644E3,2.2962002E4,2.5300176E3,8.888519E3,1.6750572E4,1.8869805E4,2.4355696E3,8.610674E2,7.502379E3,6.424741E3,2.0755667E3,6.594547E3,4.1276396E3,1.958163E4,1.5799199E3,1.7814368E3,1.2447412E3,4.729629E2,2.1817246E3,3.321684E3,2.17387E3,2.978035E2,2.1815381E2,6.0389417E2,2.5226913E1,2.4287812E3,2.3624182E3,6.6334814E2,1.8556887E4,3.675731E3,0E0,0E0,0E0,0E0,0E0,0E0,0E0,0E0,0E0,0E0,0E0,0E0,0E0,0E0,0E0,0E0,0E0,0E0,0E0,0E0,0E0,0E0,0E0,0E0,0E0,0E0,0E0,0E0,0E0,0E0,0E0,0E0],"parents":[2147483647,0,0,1,1,2,2,3,3,4,4,5,5,6,6,7,7,8,8,9,9,10,10,11,11,12,12,13,13,14,14,15,15,16,16,17,17,18,18,19,19,20,20,21,21,22,22,23,23,24,24,25,25,26,26,27,27,28,28,29,29,30,30],"right_children":[2,4,6,8,10,12,14,16,18,20,22,24,26,28,30,32,34,36,38,40,42,44,46,48,50,52,54,56,58,60,62,-1,-1,-1,-1,-1,-1,-1,-1,-1,-1,-1,-1,-1,-1,-1,-1,-1,-1,-1,-1,-1,-1,-1,-1,-1,-1,-1,-1,-1,-1,-1,-1],"split_conditions":[-8.261323E-3,-9.401057E-3,-1.6298892E-2,-7.8104353E-3,4.9651675E-2,-1.8142091E-2,-2.620272E-3,1.043987E-2,-1.6558263E-2,-1.6528144E-2,4.3204725E-3,-1.0064998E-2,-3.520065E-2,-2.711193E-4,-2.206751E-3,-7.8345643E-4,-5.4544845E-4,-9.48605E-3,-1.7510859E-3,-2.0891447E-2,2.0439165E-2,-2.1561023E-2,-2.8398933E-2,2.9500354E-2,-1.2480681E-2,9.970099E-3,-3.334241E-3,-1.2156523E-2,-1.1749256E-2,-1.1455239E-2,-7.571888E-3,-4.3614794E-2,-1.669334E-1,-1.4986181E-1,1.9113496E-1,-1.3443059E-1,1.5960391E-1,-1.3659114E-1,-2.359811E-1,4.9924668E-2,5.634437E-1,-2.0678094E-2,-2.2234E-1,-1.6848806E-2,6.288468E-1,7.885286E-2,-1.4161742E-1,-1.5633722E-1,5.4741013E-3,-2.8510278E-2,2.2817226E-1,-8.784974E-2,1.6411999E-3,6.963538E-1,-4.8434757E-2,1.9598782E-1,-3.5360735E-2,2.6630575E-2,-2.2232354E-1,5.9374595E-1,3.6686268E-2,2.3350725E-1,-9.4304554E-2],"split_indices":[1274,2750,488,851,3079,1049,842,1230,3098,966,3623,314,3193,606,911,1315,1024,1274,1202,3412,3230,3594,2904,1295,800,1283,1808,939,259,1086,3377,0,0,0,0,0,0,0,0,0,0,0,0,0,0,0,0,0,0,0,0,0,0,0,0,0,0,0,0,0,0,0,0],"split_type":[0,0,0,0,0,0,0,0,0,0,0,0,0,0,0,0,0,0,0,0,0,0,0,0,0,0,0,0,0,0,0,0,0,0,0,0,0,0,0,0,0,0,0,0,0,0,0,0,0,0,0,0,0,0,0,0,0,0,0,0,0,0,0],"sum_hessian":[3.704E3,2.053E3,1.651E3,1.098E3,9.55E2,2.3E2,1.421E3,5.3E2,5.68E2,8.88E2,6.7E1,9.1E1,1.39E2,9.31E2,4.9E2,4.6E2,7E1,2.25E2,3.43E2,3.7E1,8.51E2,4.5E1,2.2E1,4.4E1,4.7E1,1.3E1,1.26E2,7.78E2,1.53E2,2.69E2,2.21E2,2.62E2,1.98E2,1.7E1,5.3E1,2.14E2,1.1E1,1.16E2,2.27E2,1.5E1,2.2E1,7.58E2,9.3E1,6E0,3.9E1,4E0,1.8E1,3.3E1,1.1E1,1.1E1,3.6E1,9E0,4E0,1.22E2,4E0,4.4E1,7.34E2,1.1E1,1.42E2,1.64E2,1.05E2,3.9E1,1.82E2],"tree_param":{"num_deleted":"0","num_feature":"4094","num_nodes":"63","size_leaf_vector":"1"}},{"base_weights":[9.248455E-2,-1.860134E0,2.3414247E0,-3.0604694E0,1.5747161E0,1.2362452E1,1.0724515E0,-6.5453845E-1,-4.4910183E0,-4.0120497E-2,1.1346925E1,7.19717E-1,1.8470705E1,-9.7756946E-1,7.263021E0,-4.2596793E0,6.05829E-1,-3.3000784E0,-5.719273E0,6.6129956E0,-2.4590805E0,1.7261955E1,3.564422E-1,-2.3896744E0,5.580792E0,-1.9798586E0,1.996156E1,-4.9060025E0,1.8736964E-2,1.3690863E1,4.4432935E-1,-1.6930915E-1,-3.5623074E-2,-3.4640152E-2,1.4810675E-1,-1.5818283E-1,-5.9844542E-2,-2.1736997E-1,-1.1841325E-1,9.995325E-2,4.351274E-1,1.2648393E-1,-1.1720404E-1,4.0670786E-2,6.0822487E-1,1.3346267E-1,-4.3109886E-2,-1.2547295E-1,1.479269E-2,-1.9969052E-2,1.9460908E-1,5.871925E-4,-7.548176E-2,6.7459E-1,3.718488E-2,2.7533502E-3,-2.1579799E-1,2.7449405E-1,-2.6460353E-2,6.238748E-1,2.567768E-2,2.5009266E-1,-1.0120078E-1],"categories":[],"categories_nodes":[],"categories_segments":[],"categories_sizes":[],"default_left":[0,0,0,0,0,0,0,0,0,0,0,0,0,0,0,0,0,0,0,0,0,0,0,0,0,0,0,0,0,0,0,0,0,0,0,0,0,0,0,0,0,0,0,0,0,0,0,0,0,0,0,0,0,0,0,0,0,0,0,0,0,0,0],"id":1,"left_children":[1,3,5,7,9,11,13,15,17,19,21,23,25,27,29,31,33,35,37,39,41,43,45,47,49,51,53,55,57,59,61,-1,-1,-1,-1,-1,-1,-1,-1,-1,-1,-1,-1,-1,-1,-1,-1,-1,-1,-1,-1,-1,-1,-1,-1,-1,-1,-1,-1,-1,-1,-1,-1],"loss_changes":[1.6356496E4,8.253996E3,2.1919363E4,5.0732363E3,8.223119E3,1.3697471E4,1.9642197E4,2.5618398E3,1.2257207E3,7.416911E3,4.761365E3,1.2088503E3,4.1413203E3,4.5638545E3,1.6827768E4,3.772085E2,2.7633865E3,1.0314946E3,6.869326E2,2.6342734E3,2.464668E3,8.1296387E2,2.4051228E2,2.1486935E2,9.127002E1,9.788502E0,1.1548477E3,1.9666519E3,6.493072E3,1.3470828E4,5.067983E3,0E0,0E0,0E0,0E0,0E0,0E0,0E0,0E0,0E0,0E0,0E0,0E0,0E0,0E0,0E0,0E0,0E0,0E0,0E0,0E0,0E0,0E0,0E0,0E0,0E0,0E0,0E0,0E0,0E0,0E0,0E0,0E0],"parents":[2147483647,0,0,1,1,2,2,3,3,4,4,5,5,6,6,7,7,8,8,9,9,10,10,11,11,12,12,13,13,14,14,15,15,16,16,17,17,18,18,19,19,20,20,21,21,22,22,23,23,24,24,25,25,26,26,27,27,28,28,29,29,30,30],"right_children":[2,4,6,8,10,12,14,16,18,20,22,24,26,28,30,32,34,36,38,40,42,44,46,48,50,52,54,56,58,60,62,-1,-1,-1,-1,-1,-1,-1,-1,-1,-1,-1,-1,-1,-1,-1,-1,-1,-1,-1,-1,-1,-1,-1,-1,-1,-1,-1,-1,-1,-1,-1,-1],"split_conditions":[-8.8451635E-3,-3.6165363E-3,-1.8849874E-2,-1.3129637E-2,-3.0146728E-3,-2.5644168E-2,3.3039837E-3,-9.5674945E-3,-1.19800335E-2,-1.3121475E-2,-6.36178E-3,-1.3325451E-2,-4.6560973E-2,-1.2970474E-2,-6.0557337E-3,-1.7380359E-2,-1.2499969E-2,-1.4530661E-2,-4.374664E-3,3.1136768E-3,-4.194264E-3,-5.865235E-2,-1.5051712E-2,-9.438071E-3,-2.4773566E-1,-3.2020688E-1,4.850548E-3,4.4756155E-3,-9.537669E-3,-2.4846194E-3,-9.454387E-3,-1.6930915E-1,-3.5623074E-2,-3.4640152E-2,1.4810675E-1,-1.5818283E-1,-5.9844542E-2,-2.1736997E-1,-1.1841325E-1,9.995325E-2,4.351274E-1,1.2648393E-1,-1.1720404E-1,4.0670786E-2,6.0822487E-1,1.3346267E-1,-4.3109886E-2,-1.2547295E-1,1.479269E-2,-1.9969052E-2,1.9460908E-1,5.871925E-4,-7.548176E-2,6.7459E-1,3.718488E-2,2.7533502E-3,-2.1579799E-1,2.7449405E-1,-2.6460353E-2,6.238748E-1,2.567768E-2,2.5009266E-1,-1.0120078E-1],"split_indices":[1274,3341,488,851,2914,1049,842,2968,3519,697,1331,362,3643,925,1086,2955,1236,2499,3351,808,3012,1072,55,1403,1028,0,3669,1002,939,922,3281,0,0,0,0,0,0,0,0,0,0,0,0,0,0,0,0,0,0,0,0,0,0,0,0,0,0,0,0,0,0,0,0],"split_type":[0,0,0,0,0,0,0,0,0,0,0,0,0,0,0,0,0,0,0,0,0,0,0,0,0,0,0,0,0,0,0,0,0,0,0,0,0,0,0,0,0,0,0,0,0,0,0,0,0,0,0,0,0,0,0,0,0,0,0,0,0,0,0],"sum_hessian":[3.711E3,1.987E3,1.724E3,1.473E3,5.14E2,1.87E2,1.537E3,5.53E2,9.2E2,4.47E2,6.7E1,6.7E1,1.2E2,1.159E3,3.78E2,1.39E2,4.14E2,4.8E2,4.4E2,1.16E2,3.31E2,4.1E1,2.6E1,4.3E1,2.4E1,8E0,1.12E2,2.29E2,9.3E2,1.91E2,1.87E2,1.05E2,3.4E1,2.94E2,1.2E2,2.29E2,2.51E2,2.98E2,1.42E2,8.2E1,3.4E1,4.7E1,2.84E2,4E0,3.7E1,5E0,2.1E1,2.7E1,1.6E1,1E0,2.3E1,2E0,6E0,1.08E2,4E0,5.9E1,1.7E2,7.8E1,8.52E2,1.33E2,5.8E1,5.9E1,1.28E2],"tree_param":{"num_deleted":"0","num_feature":"4094","num_nodes":"63","size_leaf_vector":"1"}},{"base_weights":[-3.115078E-2,-1.5033394E0,2.818231E0,1.736675E-1,-3.312273E0,1.2459316E1,1.3470248E0,-1.0124292E0,6.2825203E0,-2.336211E-1,-4.853674E0,1.17451E0,1.823885E1,-1.0145397E0,7.2563505E0,-3.5311735E0,2.338386E-1,1.6310732E1,1.2843809E0,5.9795346E0,-2.6949852E0,-5.4736767E0,-3.714176E-1,-3.89212E0,6.1542916E0,-5.914862E-1,1.9365572E1,-5.0488553E0,2.1050796E-1,1.4019203E1,3.5331693E-1,-1.4213327E-1,1.0082042E-2,-1.3134097E-2,3.1137678E-1,-1.5268037E-2,6.1996317E-1,1.0819898E-1,-6.917189E-2,4.6319014E-1,1.03582986E-1,-1.5436101E-1,-4.7274408E-4,-1.1018494E-1,-2.0592982E-1,2.6964715E-1,-1.1182274E-1,-1.451292E-1,3.903922E-3,2.4198805E-1,4.4804816E-3,-3.352783E-2,4.3902104E-3,6.5137964E-1,-3.6256067E-2,2.9900098E-1,-1.9545265E-1,1.8620864E-1,-3.0188775E-2,4.345449E-2,5.921955E-1,2.1397328E-1,-7.258449E-2],"categories":[],"categories_nodes":[],"categories_segments":[],"categories_sizes":[],"default_left":[0,0,0,0,0,0,0,0,0,0,0,0,0,0,0,0,0,0,0,0,0,0,0,0,0,0,0,0,0,0,0,0,0,0,0,0,0,0,0,0,0,0,0,0,0,0,0,0,0,0,0,0,0,0,0,0,0,0,0,0,0,0,0],"id":2,"left_children":[1,3,5,7,9,11,13,15,17,19,21,23,25,27,29,31,33,35,37,39,41,43,45,47,49,51,53,55,57,59,61,-1,-1,-1,-1,-1,-1,-1,-1,-1,-1,-1,-1,-1,-1,-1,-1,-1,-1,-1,-1,-1,-1,-1,-1,-1,-1,-1,-1,-1,-1,-1,-1],"loss_changes":[1.5599964E4,7.4420176E3,1.7853953E4,9.310321E3,5.591298E3,1.0737301E4,1.5497743E4,3.386096E3,1.0325849E4,6.241905E3,2.1699922E3,1.7772303E3,2.4105508E3,3.9457612E3,1.4759801E4,1.102918E3,4.2890815E3,3.0358828E3,1.0499994E3,2.3541128E3,1.5699844E3,1.02234766E3,2.8738406E3,7.975061E1,2.4862915E2,4.9610147E0,1.1644844E3,2.7553994E3,3.8498008E3,7.9958066E3,2.690258E3,0E0,0E0,0E0,0E0,0E0,0E0,0E0,0E0,0E0,0E0,0E0,0E0,0E0,0E0,0E0,0E0,0E0,0E0,0E0,0E0,0E0,0E0,0E0,0E0,0E0,0E0,0E0,0E0,0E0,0E0,0E0,0E0],"parents":[2147483647,0,0,1,1,2,2,3,3,4,4,5,5,6,6,7,7,8,8,9,9,10,10,11,11,12,12,13,13,14,14,15,15,16,16,17,17,18,18,19,19,20,20,21,21,22,22,23,23,24,24,25,25,26,26,27,27,28,28,29,29,30,30],"right_children":[2,4,6,8,10,12,14,16,18,20,22,24,26,28,30,32,34,36,38,40,42,44,46,48,50,52,54,56,58,60,62,-1,-1,-1,-1,-1,-1,-1,-1,-1,-1,-1,-1,-1,-1,-1,-1,-1,-1,-1,-1,-1,-1,-1,-1,-1,-1,-1,-1,-1,-1,-1,-1],"split_conditions":[-4.7263764E-3,-8.152802E-3,-2.126928E-2,-1.1886416E-2,-1.6288385E-2,-1.8279608E-2,3.3039837E-3,-1.4095417E-2,-1.5671872E-2,-4.52269E-2,-9.181314E-3,-1.3454312E-2,-2.086613E-2,-1.5257248E-2,-1.4050333E-2,3.809032E-5,1.3452019E-3,-8.524665E-3,-9.581004E-3,-4.434916E-2,-2.0054819E-2,-1.4450597E-2,-9.953705E-3,4.626824E-2,-4.692025E-2,-3.360351E-3,5.4445956E-3,-1.3196986E-2,-1.0178237E-2,-1.4616334E-2,-1.052603E-2,-1.4213327E-1,1.0082042E-2,-1.3134097E-2,3.1137678E-1,-1.5268037E-2,6.1996317E-1,1.0819898E-1,-6.917189E-2,4.6319014E-1,1.03582986E-1,-1.5436101E-1,-4.7274408E-4,-1.1018494E-1,-2.0592982E-1,2.6964715E-1,-1.1182274E-1,-1.451292E-1,3.903922E-3,2.4198805E-1,4.4804816E-3,-3.352783E-2,4.3902104E-3,6.5137964E-1,-3.6256067E-2,2.9900098E-1,-1.9545265E-1,1.8620864E-1,-3.0188775E-2,4.345449E-2,5.921955E-1,2.1397328E-1,-7.258449E-2],"split_indices":[1274,3252,2535,1407,2901,3096,842,3191,1373,3109,3321,3607,2421,925,3133,266,2705,651,1244,3065,2948,3288,661,2948,0,1284,334,445,922,2909,3281,0,0,0,0,0,0,0,0,0,0,0,0,0,0,0,0,0,0,0,0,0,0,0,0,0,0,0,0,0,0,0,0],"split_type":[0,0,0,0,0,0,0,0,0,0,0,0,0,0,0,0,0,0,0,0,0,0,0,0,0,0,0,0,0,0,0,0,0,0,0,0,0,0,0,0,0,0,0,0,0,0,0,0,0,0,0,0,0,0,0,0,0,0,0,0,0,0,0],"sum_hessian":[3.705E3,2.445E3,1.26E3,1.272E3,1.173E3,1.6E2,1.1E3,1.07E3,2.02E2,3.94E2,7.79E2,5.7E1,1.03E2,7.9E2,3.1E2,3.5E2,7.2E2,6.2E1,1.4E2,1.09E2,2.85E2,6.83E2,9.6E1,2.9E1,2.8E1,6E0,9.7E1,1.79E2,6.11E2,1.53E2,1.57E2,2.89E2,6.1E1,6.8E2,4E1,9E0,5.3E1,8.8E1,5.2E1,2.1E1,8.8E1,1.6E2,1.25E2,1.97E2,4.86E2,2.2E1,7.4E1,2.5E1,4E0,2.2E1,6E0,2E0,4E0,9.5E1,2E0,7E0,1.72E2,1E2,5.11E2,3.9E1,1.14E2,4.3E1,1.14E2],"tree_param":{"num_deleted":"0","num_feature":"4094","num_nodes":"63","size_leaf_vector":"1"}},{"base_weights":[4.1207224E-2,-2.1728594E0,1.6842802E0,-2.6975732E0,6.06463E0,-4.1163093E-1,5.650876E0,-1.901533E0,-5.311852E0,1.4510947E1,-3.3691585E0,-1.1359932E0,4.9304004E0,1.1506713E1,1.0137477E0,-3.3416657E0,3.3530858E-1,2.3559024E0,-5.544911E0,-1.3252614E0,1.7183681E1,3.171477E0,-1.6119772E-1,1.2898543E-1,-4.5782347E0,1.1278225E1,3.3277345E-1,9.8070604E-1,1.621995E1,1.063505E1,-9.5004255E-1,-1.3181187E-1,-4.5083858E-2,-2.877507E-2,1.4526223E-1,-3.5790965E-2,1.2662002E-1,-2.0515016E-1,-6.89482E-2,-5.7209995E-2,8.543121E-3,5.812275E-1,4.4291634E-2,1.532048E-1,7.0577804E-3,-2.9294133E-2,2.3394758E-1,-1.8517326E-1,5.9152604E-3,8.031577E-2,5.743872E-1,2.4705812E-1,-2.09473E-2,-1.0645046E-1,2.9346216E-1,-9.389463E-2,5.977267E-1,5.4609835E-1,3.802379E-2,1.5142904E-1,-1.1234102E-1],"categories":[],"categories_nodes":[],"categories_segments":[],"categories_sizes":[],"default_left":[0,0,0,0,0,0,0,0,0,0,0,0,0,0,0,0,0,0,0,0,0,0,0,0,0,0,0,0,0,0,0,0,0,0,0,0,0,0,0,0,0,0,0,0,0,0,0,0,0,0,0,0,0,0,0,0,0,0,0,0,0],"id":3,"left_children":[1,3,5,7,9,11,13,15,17,19,21,23,25,27,29,31,33,35,37,39,41,43,-1,45,47,49,51,53,55,57,59,-1,-1,-1,-1,-1,-1,-1,-1,-1,-1,-1,-1,-1,-1,-1,-1,-1,-1,-1,-1,-1,-1,-1,-1,-1,-1,-1,-1,-1,-1],"loss_changes":[1.33722E4,6.8810894E3,1.7556922E4,3.0038867E3,7.977969E3,5.4052905E3,1.9739322E4,3.6893857E3,6.99251E2,2.3534688E3,6.203927E2,5.346412E3,4.844917E3,1.5860004E4,7.9087573E3,8.845679E2,2.2762288E3,1.06041176E2,7.1713184E2,1.2322729E1,2.060039E2,5.4509827E1,0E0,6.503713E3,1.6748081E3,3.5434824E3,7.586444E2,3.7927837E3,8.774824E3,3.8982524E3,4.9341655E3,0E0,0E0,0E0,0E0,0E0,0E0,0E0,0E0,0E0,0E0,0E0,0E0,0E0,0E0,0E0,0E0,0E0,0E0,0E0,0E0,0E0,0E0,0E0,0E0,0E0,0E0,0E0,0E0,0E0,0E0],"parents":[2147483647,0,0,1,1,2,2,3,3,4,4,5,5,6,6,7,7,8,8,9,9,10,10,11,11,12,12,13,13,14,14,15,15,16,16,17,17,18,18,19,19,20,20,21,21,23,23,24,24,25,25,26,26,27,27,28,28,29,29,30,30],"right_children":[2,4,6,8,10,12,14,16,18,20,22,24,26,28,30,32,34,36,38,40,42,44,-1,46,48,50,52,54,56,58,60,-1,-1,-1,-1,-1,-1,-1,-1,-1,-1,-1,-1,-1,-1,-1,-1,-1,-1,-1,-1,-1,-1,-1,-1,-1,-1,-1,-1,-1,-1],"split_conditions":[7.0207384E-3,1.8878853E-2,-8.015698E-3,7.2708614E-3,-1.2069968E-2,6.015587E-3,-4.997563E-3,-4.4735596E-3,-9.07405E-3,-4.07729E-2,-2.002733E-2,-7.3687243E-3,1.9383978E-2,-2.0790368E-2,-1.5285366E-2,-4.63422E-3,-5.152907E-3,-1.3392196E-2,1.6957499E-3,-1.4281884E-2,3.438818E-2,-4.692025E-2,-1.6119772E-1,-2.7890026E-3,-5.706911E-3,-1.3043872E-2,-2.4345603E-2,-1.9032592E-2,-2.0392335E-4,-7.4114585E-3,-6.5799286E-3,-1.3181187E-1,-4.5083858E-2,-2.877507E-2,1.4526223E-1,-3.5790965E-2,1.2662002E-1,-2.0515016E-1,-6.89482E-2,-5.7209995E-2,8.543121E-3,5.812275E-1,4.4291634E-2,1.532048E-1,7.0577804E-3,-2.9294133E-2,2.3394758E-1,-1.8517326E-1,5.9152604E-3,8.031577E-2,5.743872E-1,2.4705812E-1,-2.09473E-2,-1.0645046E-1,2.9346216E-1,-9.389463E-2,5.977267E-1,5.4609835E-1,3.802379E-2,1.5142904E-1,-1.1234102E-1],"split_indices":[1117,3321,862,1197,2945,1268,1293,1117,1428,2742,1063,851,940,1284,2761,2560,1512,1282,2669,0,2582,0,0,1240,698,896,3318,1045,955,863,768,0,0,0,0,0,0,0,0,0,0,0,0,0,0,0,0,0,0,0,0,0,0,0,0,0,0,0,0,0,0],"split_type":[0,0,0,0,0,0,0,0,0,0,0,0,0,0,0,0,0,0,0,0,0,0,0,0,0,0,0,0,0,0,0,0,0,0,0,0,0,0,0,0,0,0,0,0,0,0,0,0,0,0,0,0,0,0,0,0,0,0,0,0,0],"sum_hessian":[3.662E3,1.559E3,2.103E3,1.47E3,8.9E1,1.38E3,7.23E2,1.136E3,3.34E2,4.5E1,4.4E1,1.22E3,1.6E2,3.15E2,4.08E2,6.89E2,4.47E2,8E0,3.26E2,7E0,3.8E1,7E0,3.7E1,8.97E2,3.23E2,6.3E1,9.7E1,1E2,2.15E2,6.4E1,3.44E2,5.08E2,1.81E2,3.49E2,9.8E1,3E0,5E0,2.66E2,6E1,5E0,2E0,3.6E1,2E0,2E0,5E0,7.88E2,1.09E2,2.63E2,6E1,3E1,3.3E1,6E0,9.1E1,6.8E1,3.2E1,2E1,1.95E2,3.6E1,2.8E1,1.04E2,2.4E2],"tree_param":{"num_deleted":"0","num_feature":"4094","num_nodes":"61","size_leaf_vector":"1"}},{"base_weights":[1.008057E-1,-1.3827183E0,2.7412262E0,-3.1660712E-1,-3.8094795E0,9.3529326E-1,8.91024E0,-1.583147E0,3.6435308E0,-1.17516875E-1,-5.000491E0,7.8913665E0,-1.0865465E0,1.5192224E1,-1.2574334E0,-3.6311417E0,-3.746865E-1,-9.261511E-1,9.375548E0,4.4571347E0,-2.7177796E0,1.3452259E0,-5.5080223E0,-4.9562596E-2,1.5842412E1,1.5660082E0,-2.9126902E0,1.0480331E0,1.7446987E1,1.0115763E1,-3.3994038E0,-1.2728487E-1,7.514136E-2,-2.9177213E-2,2.3903221E-1,-6.095422E-2,1.012359E-1,4.068583E-2,4.470491E-1,1.7459446E-1,-3.700867E-2,2.4052931E-1,-1.17754295E-1,1.8937823E-1,-1.1842123E-1,-1.0695868E-1,-2.051844E-1,-1.7734692E-1,1.00034714E-1,-5.9396606E-2,5.902739E-1,2.2659978E-1,5.7148584E-3,-4.1704837E-2,-1.788903E-1,-2.9958006E-2,2.0489895E-1,-3.4322694E-2,6.062843E-1,-5.775587E-2,4.1969144E-1,-1.5639353E-1,2.6225836E-3],"categories":[],"categories_nodes":[],"categories_segments":[],"categories_sizes":[],"default_left":[0,0,0,0,0,0,0,0,0,0,0,0,0,0,0,0,0,0,0,0,0,0,0,0,0,0,0,0,0,0,0,0,0,0,0,0,0,0,0,0,0,0,0,0,0,0,0,0,0,0,0,0,0,0,0,0,0,0,0,0,0,0,0],"id":4,"left_children":[1,3,5,7,9,11,13,15,17,19,21,23,25,27,29,31,33,35,37,39,41,43,45,47,49,51,53,55,57,59,61,-1,-1,-1,-1,-1,-1,-1,-1,-1,-1,-1,-1,-1,-1,-1,-1,-1,-1,-1,-1,-1,-1,-1,-1,-1,-1,-1,-1,-1,-1,-1,-1],"loss_changes":[1.4460328E4,6.1075454E3,1.4736384E4,8.315096E3,3.1658418E3,1.4613933E4,1.9286883E4,3.096384E3,1.0586877E4,2.2590913E3,1.8059951E3,1.4773184E4,3.9448416E3,5.8024414E3,3.1821782E3,7.3867676E2,3.181143E3,8.9737695E2,6.058379E3,3.7270898E2,1.236706E3,1.1489006E3,7.04416E2,2.1671833E3,4.636408E3,2.4719243E3,1.9556018E3,3.742105E2,3.1533125E3,8.17228E2,5.101399E2,0E0,0E0,0E0,0E0,0E0,0E0,0E0,0E0,0E0,0E0,0E0,0E0,0E0,0E0,0E0,0E0,0E0,0E0,0E0,0E0,0E0,0E0,0E0,0E0,0E0,0E0,0E0,0E0,0E0,0E0,0E0,0E0],"parents":[2147483647,0,0,1,1,2,2,3,3,4,4,5,5,6,6,7,7,8,8,9,9,10,10,11,11,12,12,13,13,14,14,15,15,16,16,17,17,18,18,19,19,20,20,21,21,22,22,23,23,24,24,25,25,26,26,27,27,28,28,29,29,30,30],"right_children":[2,4,6,8,10,12,14,16,18,20,22,24,26,28,30,32,34,36,38,40,42,44,46,48,50,52,54,56,58,60,62,-1,-1,-1,-1,-1,-1,-1,-1,-1,-1,-1,-1,-1,-1,-1,-1,-1,-1,-1,-1,-1,-1,-1,-1,-1,-1,-1,-1,-1,-1,-1,-1],"split_conditions":[-5.1234663E-3,4.750692E-3,-9.022133E-3,7.367468E-3,-1.7264483E-2,-2.7929457E-2,-2.1950426E-3,-1.2387642E-2,-2.5837881E-2,-1.4119945E-2,1.2978972E-2,-7.5608743E-3,-1.1161767E-2,-1.8266225E-2,-9.859837E-3,7.483216E-2,7.015954E-3,1.2043161E-2,-2.2719693E-3,-9.14858E-3,-2.1644747E-2,-1.12477355E-2,-9.884751E-3,-7.6194745E-3,-1.1379829E-2,-2.8577851E-2,-4.432962E-3,-9.68558E-3,-1.7561425E-2,-3.7669803E-3,2.7330117E-3,-1.2728487E-1,7.514136E-2,-2.9177213E-2,2.3903221E-1,-6.095422E-2,1.012359E-1,4.068583E-2,4.470491E-1,1.7459446E-1,-3.700867E-2,2.4052931E-1,-1.17754295E-1,1.8937823E-1,-1.1842123E-1,-1.0695868E-1,-2.051844E-1,-1.7734692E-1,1.00034714E-1,-5.9396606E-2,5.902739E-1,2.2659978E-1,5.7148584E-3,-4.1704837E-2,-1.788903E-1,-2.9958006E-2,2.0489895E-1,-3.4322694E-2,6.062843E-1,-5.775587E-2,4.1969144E-1,-1.5639353E-1,2.6225836E-3],"split_indices":[1274,1203,1049,762,2901,3127,1219,1344,1190,3340,957,2739,2391,1151,1313,3072,1053,1320,731,1103,3063,2977,1241,1279,851,1,3265,1045,2966,513,1590,0,0,0,0,0,0,0,0,0,0,0,0,0,0,0,0,0,0,0,0,0,0,0,0,0,0,0,0,0,0,0,0],"split_type":[0,0,0,0,0,0,0,0,0,0,0,0,0,0,0,0,0,0,0,0,0,0,0,0,0,0,0,0,0,0,0,0,0,0,0,0,0,0,0,0,0,0,0,0,0,0,0,0,0,0,0,0,0,0,0,0,0,0,0,0,0,0,0],"sum_hessian":[3.678E3,2.357E3,1.321E3,1.643E3,7.14E2,1.028E3,2.93E2,1.248E3,3.95E2,1.76E2,5.38E2,2.27E2,8.01E2,1.79E2,1.14E2,4.58E2,7.9E2,2.23E2,1.72E2,6.2E1,1.14E2,3.9E1,4.99E2,1.17E2,1.1E2,3.27E2,4.74E2,2.6E1,1.53E2,1.4E1,1E2,4.42E2,1.6E1,7.46E2,4.4E1,1.84E2,3.9E1,6.2E1,1.1E2,5.4E1,8E0,5E0,1.09E2,2E1,1.9E1,1.33E2,3.66E2,4.1E1,7.6E1,1.2E1,9.8E1,6.2E1,2.65E2,2.94E2,1.8E2,2.3E1,3E0,8E0,1.45E2,3E0,1.1E1,7E1,3E1],"tree_param":{"num_deleted":"0","num_feature":"4094","num_nodes":"63","size_leaf_vector":"1"}},{"base_weights":[-4.3682124E-2,-9.007454E-1,3.9747713E0,7.5108695E-1,-2.6660833E0,-2.2308755E0,7.8101325E0,-5.9471536E-1,5.80363E0,-1.1467422E0,-4.134845E0,9.489905E0,-3.4471126E0,1.3257195E1,8.427385E-1,-1.1441776E0,6.85294E0,-5.9090006E-1,1.1505952E1,-3.189514E0,1.7177893E0,1.1187071E0,-4.7094154E0,-1.0288101E0,1.2346518E1,1.384571E0,-4.11412E0,-1.2403117E0,1.593205E1,7.197336E0,-1.4167448E0,-1.3552287E-1,-1.2961601E-2,5.027576E-1,-5.6065794E-2,-7.863237E-2,3.0470315E-1,5.2585864E-1,1.1459887E-1,-1.4074273E-1,-1.4562075E-2,2.8271294E-1,-1.8094594E-2,-1.1789314E-1,2.2061206E-1,9.002969E-3,-1.7022276E-1,-3.7045397E-2,2.3598954E-4,4.2621478E-1,4.6740793E-2,-5.9927322E-2,8.293146E-2,-1.9274248E-1,-7.8774124E-2,-1.5528713E-1,1.1283842E-1,1.03360884E-1,5.728752E-1,-1.2503846E-1,3.1533596E-1,1.2615468E-1,-7.673307E-2],"categories":[],"categories_nodes":[],"categories_segments":[],"categories_sizes":[],"default_left":[0,0,0,0,0,0,0,0,0,0,0,0,0,0,0,0,0,0,0,0,0,0,0,0,0,0,0,0,0,0,0,0,0,0,0,0,0,0,0,0,0,0,0,0,0,0,0,0,0,0,0,0,0,0,0,0,0,0,0,0,0,0,0],"id":5,"left_children":[1,3,5,7,9,11,13,15,17,19,21,23,25,27,29,31,33,35,37,39,41,43,45,47,49,51,53,55,57,59,61,-1,-1,-1,-1,-1,-1,-1,-1,-1,-1,-1,-1,-1,-1,-1,-1,-1,-1,-1,-1,-1,-1,-1,-1,-1,-1,-1,-1,-1,-1,-1,-1],"loss_changes":[1.2850029E4,8.980326E3,1.5730986E4,1.0861835E4,3.287621E3,3.873359E3,1.5365359E4,5.230262E3,1.2294807E4,4.373177E3,2.3119805E3,8.65635E2,8.027261E2,8.973684E3,2.7393862E3,2.6360698E3,6.547403E3,3.090683E3,6.048662E3,1.2977964E3,4.9272007E3,2.274197E3,1.6245186E3,1.2839661E0,1.7861572E1,1.5600735E2,5.352102E2,7.959975E2,3.3660234E3,1.5747458E3,7.5387225E2,0E0,0E0,0E0,0E0,0E0,0E0,0E0,0E0,0E0,0E0,0E0,0E0,0E0,0E0,0E0,0E0,0E0,0E0,0E0,0E0,0E0,0E0,0E0,0E0,0E0,0E0,0E0,0E0,0E0,0E0,0E0,0E0],"parents":[2147483647,0,0,1,1,2,2,3,3,4,4,5,5,6,6,7,7,8,8,9,9,10,10,11,11,12,12,13,13,14,14,15,15,16,16,17,17,18,18,19,19,20,20,21,21,22,22,23,23,24,24,25,25,26,26,27,27,28,28,29,29,30,30],"right_children":[2,4,6,8,10,12,14,16,18,20,22,24,26,28,30,32,34,36,38,40,42,44,46,48,50,52,54,56,58,60,62,-1,-1,-1,-1,-1,-1,-1,-1,-1,-1,-1,-1,-1,-1,-1,-1,-1,-1,-1,-1,-1,-1,-1,-1,-1,-1,-1,-1,-1,-1,-1,-1],"split_conditions":[6.0870196E-3,-1.0766891E-2,-1.6066603E-2,-1.17465425E-2,-6.866867E-3,-5.145978E-2,5.426672E-3,-3.2614798E-3,-1.28665995E-2,-8.355253E-3,-1.3570221E-2,9.2286186E-4,-1.55645665E-2,-1.8868556E-2,-1.1967324E-2,-1.7450672E-2,-1.4894922E-2,-4.899491E-3,-1.6141813E-2,-8.574775E-3,-1.2900505E-2,-1.4854201E-2,-1.781561E-2,1.782459E-2,2.2712346E-2,-1.1399302E-3,1.1695266E-2,-2.4787733E-2,-2.7904948E-3,-1.3401946E-2,-1.484018E-2,-1.3552287E-1,-1.2961601E-2,5.027576E-1,-5.6065794E-2,-7.863237E-2,3.0470315E-1,5.2585864E-1,1.1459887E-1,-1.4074273E-1,-1.4562075E-2,2.8271294E-1,-1.8094594E-2,-1.1789314E-1,2.2061206E-1,9.002969E-3,-1.7022276E-1,-3.7045397E-2,2.3598954E-4,4.2621478E-1,4.6740793E-2,-5.9927322E-2,8.293146E-2,-1.9274248E-1,-7.8774124E-2,-1.5528713E-1,1.1283842E-1,1.03360884E-1,5.728752E-1,-1.2503846E-1,3.1533596E-1,1.2615468E-1,-7.673307E-2],"split_indices":[842,817,1009,3300,684,3038,1314,2869,2687,1294,939,1,851,1007,916,2595,488,2908,2897,1282,2977,1273,828,770,514,773,922,901,795,3353,3340,0,0,0,0,0,0,0,0,0,0,0,0,0,0,0,0,0,0,0,0,0,0,0,0,0,0,0,0,0,0,0,0],"split_type":[0,0,0,0,0,0,0,0,0,0,0,0,0,0,0,0,0,0,0,0,0,0,0,0,0,0,0,0,0,0,0,0,0,0,0,0,0,0,0,0,0,0,0,0,0,0,0,0,0,0,0,0,0,0,0,0,0,0,0,0,0,0,0],"sum_hessian":[3.717E3,3.068E3,6.49E2,1.587E3,1.481E3,2.49E2,4E2,1.258E3,3.29E2,7.34E2,7.47E2,1.9E1,2.3E2,2.21E2,1.79E2,1.177E3,8.1E1,1.58E2,1.71E2,4.28E2,3.06E2,7.3E1,6.74E2,5E0,1.4E1,2.7E1,2.03E2,3.5E1,1.86E2,4.3E1,1.36E2,2.3E2,9.47E2,3.8E1,4.3E1,1.38E2,2E1,1.05E2,6.6E1,3.03E2,1.25E2,7.1E1,2.35E2,4.1E1,3.2E1,5.9E1,6.15E2,4E0,1E0,1.2E1,2E0,6E0,2.1E1,9.2E1,1.11E2,2E1,1.5E1,2.2E1,1.64E2,7E0,3.6E1,1.7E1,1.19E2],"tree_param":{"num_deleted":"0","num_feature":"4094","num_nodes":"63","size_leaf_vector":"1"}},{"base_weights":[1.8292205E-2,-2.311934E0,1.2895784E0,-2.6065443E0,1.0056549E1,-4.999562E-1,4.750942E0,-1.6083149E0,-4.6079583E0,4.633351E-1,-1.1386464E-1,-3.1655035E0,6.3583416E-1,1.194919E1,1.9857954E0,-2.3841887E0,1.9571494E0,-5.4047437E0,-2.223808E0,-1.5898042E0,-5.6298776E0,7.8603463E0,-3.2787852E-2,1.6534487E1,1.7736528E0,-4.146686E0,5.664071E0,-1.2440976E-1,-4.152792E-2,2.1810868E-1,-1.8036425E-2,-1.2285409E-1,-2.0284091E-1,9.700519E-2,-1.06262684E-1,-9.8240346E-2,6.292029E-2,-1.9914436E-1,1.1053258E-1,7.213875E-3,4.7391364E-1,2.1914138E-1,-1.892042E-2,-1.9188346E-2,5.995779E-1,-5.1324457E-2,2.791255E-1,1.0220038E-1,-1.6231921E-1,4.026976E-3,3.9919004E-1],"categories":[],"categories_nodes":[],"categories_segments":[],"categories_sizes":[],"default_left":[0,0,0,0,0,0,0,0,0,0,0,0,0,0,0,0,0,0,0,0,0,0,0,0,0,0,0,0,0,0,0,0,0,0,0,0,0,0,0,0,0,0,0,0,0,0,0,0,0,0,0],"id":6,"left_children":[1,3,5,7,9,11,13,15,17,-1,-1,19,21,23,25,27,29,31,33,35,37,39,41,43,45,47,49,-1,-1,-1,-1,-1,-1,-1,-1,-1,-1,-1,-1,-1,-1,-1,-1,-1,-1,-1,-1,-1,-1,-1,-1],"loss_changes":[1.0992911E4,4.9538135E3,1.4888068E4,2.515959E3,2.0877327E3,4.8242573E3,1.6135854E4,2.4330686E3,7.223916E2,0E0,0E0,1.7862451E3,5.4113896E3,1.0337555E4,1.3693708E4,1.0930852E3,1.8918188E3,2.4324805E2,6.844996E2,1.514635E3,8.5887354E2,4.7459253E3,3.7891174E3,4.659961E3,1.8407651E3,1.4318975E3,1.3592565E4,0E0,0E0,0E0,0E0,0E0,0E0,0E0,0E0,0E0,0E0,0E0,0E0,0E0,0E0,0E0,0E0,0E0,0E0,0E0,0E0,0E0,0E0,0E0,0E0],"parents":[2147483647,0,0,1,1,2,2,3,3,4,4,5,5,6,6,7,7,8,8,11,11,12,12,13,13,14,14,15,15,16,16,17,17,18,18,19,19,20,20,21,21,22,22,23,23,24,24,25,25,26,26],"right_children":[2,4,6,8,10,12,14,16,18,-1,-1,20,22,24,26,28,30,32,34,36,38,40,42,44,46,48,50,-1,-1,-1,-1,-1,-1,-1,-1,-1,-1,-1,-1,-1,-1,-1,-1,-1,-1,-1,-1,-1,-1,-1,-1],"split_conditions":[2.6519524E-3,4.4880673E-2,-8.872171E-3,-4.0506977E-3,-4.060954E-3,-1.2924957E-2,-9.887141E-3,-3.3483636E-3,-1.9053216E-3,4.633351E-1,-1.1386464E-1,-1.062206E-3,-1.3816738E-2,-7.3703574E-3,-8.569326E-3,-1.0092499E-2,-8.871652E-3,-2.0271653E-2,-9.69541E-3,5.3444114E-3,-5.117464E-3,-1.2962063E-2,-1.4010504E-2,-2.3674129E-2,-5.565701E-3,-7.051285E-3,-4.0759165E-3,-1.2440976E-1,-4.152792E-2,2.1810868E-1,-1.8036425E-2,-1.2285409E-1,-2.0284091E-1,9.700519E-2,-1.06262684E-1,-9.8240346E-2,6.292029E-2,-1.9914436E-1,1.1053258E-1,7.213875E-3,4.7391364E-1,2.1914138E-1,-1.892042E-2,-1.9188346E-2,5.995779E-1,-5.1324457E-2,2.791255E-1,1.0220038E-1,-1.6231921E-1,4.026976E-3,3.9919004E-1],"split_indices":[1117,1274,862,1663,259,1283,660,1327,1466,0,0,1016,2763,1303,685,737,2983,1260,3541,1038,1268,2686,488,854,643,730,698,0,0,0,0,0,0,0,0,0,0,0,0,0,0,0,0,0,0,0,0,0,0,0,0],"split_type":[0,0,0,0,0,0,0,0,0,0,0,0,0,0,0,0,0,0,0,0,0,0,0,0,0,0,0,0,0,0,0,0,0,0,0,0,0,0,0,0,0,0,0,0,0,0,0,0,0,0,0],"sum_hessian":[3.697E3,1.303E3,2.394E3,1.278E3,2.5E1,1.582E3,8.12E2,8.61E2,4.17E2,1.9E1,6E0,4.69E2,1.113E3,2.19E2,5.93E2,7.09E2,1.52E2,3.06E2,1.11E2,2.93E2,1.76E2,8.8E1,1.025E3,1.48E2,7.1E1,2.22E2,3.71E2,3.07E2,4.02E2,4.9E1,1.03E2,1.1E2,1.96E2,1.6E1,9.5E1,2.1E2,8.3E1,1.7E2,6E0,4.4E1,4.4E1,7.1E1,9.54E2,1.4E1,1.34E2,5.1E1,2E1,2E1,2.02E2,2.04E2,1.67E2],"tree_param":{"num_deleted":"0","num_feature":"4094","num_nodes":"51","size_leaf_vector":"1"}},{"base_weights":[5.3645432E-2,-1.4625143E0,2.1666746E0,-1.7983512E0,8.90553E0,4.460726E-1,7.989284E0,-1.5178566E-1,-3.66706E0,-3.13406E0,5.194426E-1,1.0536244E1,-2.2250926E-1,1.3770088E1,2.8716273E0,-1.0148257E0,4.0149083E0,-1.5915666E0,-4.861387E0,-1.1581959E-1,5.2684247E-3,5.1998305E-1,2.4763842E0,1.4543254E0,-2.660711E0,1.6317158E1,-8.363325E-1,9.390829E0,-2.2878773E0,-8.546792E-2,4.651273E-2,4.9108556E-1,6.363642E-2,-1.1487132E-1,4.1401666E-2,-4.385953E-2,-1.7741598E-1,1.5596086E-1,-4.030818E-2,-2.2661723E-2,1.4575559E-1,-2.081588E-2,-1.7560223E-1,5.737978E-1,1.0678893E-1,2.0238589E-1,-1.5318339E-1,1.0392038E-1,5.05978E-1,-1.259932E-1,3.0558612E-2],"categories":[],"categories_nodes":[],"categories_segments":[],"categories_sizes":[],"default_left":[0,0,0,0,0,0,0,0,0,0,0,0,0,0,0,0,0,0,0,0,0,0,0,0,0,0,0,0,0,0,0,0,0,0,0,0,0,0,0,0,0,0,0,0,0,0,0,0,0,0,0],"id":7,"left_children":[1,3,5,7,9,11,13,15,17,19,-1,21,23,25,27,29,31,33,35,-1,-1,-1,37,39,41,43,45,47,49,-1,-1,-1,-1,-1,-1,-1,-1,-1,-1,-1,-1,-1,-1,-1,-1,-1,-1,-1,-1,-1,-1],"loss_changes":[1.1878362E4,7.6276206E3,1.5492863E4,6.448204E3,6.079683E3,8.1310156E3,1.0167469E4,4.0624475E3,2.3805947E3,4.4005188E1,0E0,2.930835E3,4.6666484E3,6.1915273E3,6.7371855E3,3.6370461E3,4.206384E3,2.0378975E3,1.1368506E3,0E0,0E0,0E0,3.5947583E2,4.355346E3,2.5095547E3,1.7310703E3,1.0267284E3,2.9586875E3,5.978729E2,0E0,0E0,0E0,0E0,0E0,0E0,0E0,0E0,0E0,0E0,0E0,0E0,0E0,0E0,0E0,0E0,0E0,0E0,0E0,0E0,0E0,0E0],"parents":[2147483647,0,0,1,1,2,2,3,3,4,4,5,5,6,6,7,7,8,8,9,9,11,11,12,12,13,13,14,14,15,15,16,16,17,17,18,18,22,22,23,23,24,24,25,25,26,26,27,27,28,28],"right_children":[2,4,6,8,10,12,14,16,18,20,-1,22,24,26,28,30,32,34,36,-1,-1,-1,38,40,42,44,46,48,50,-1,-1,-1,-1,-1,-1,-1,-1,-1,-1,-1,-1,-1,-1,-1,-1,-1,-1,-1,-1,-1,-1],"split_conditions":[-9.657599E-3,5.14585E-2,4.5435177E-3,-1.13404E-2,-3.58621E-2,-2.955153E-2,-1.4939203E-2,3.544387E-3,-1.9563617E-2,2.2591097E-2,5.194426E-1,-1.3980457E-2,4.8832153E-3,2.1900164E-2,-8.370487E-3,-1.80657E-2,-1.6932791E-2,-1.6756412E-2,-1.4675963E-2,-1.1581959E-1,5.2684247E-3,5.1998305E-1,-1.5086055E-2,-9.420054E-3,-1.361438E-2,-6.383844E-3,-7.246874E-2,1.704146E-3,4.0465705E-3,-8.546792E-2,4.651273E-2,4.9108556E-1,6.363642E-2,-1.1487132E-1,4.1401666E-2,-4.385953E-2,-1.7741598E-1,1.5596086E-1,-4.030818E-2,-2.2661723E-2,1.4575559E-1,-2.081588E-2,-1.7560223E-1,5.737978E-1,1.0678893E-1,2.0238589E-1,-1.5318339E-1,1.0392038E-1,5.05978E-1,-1.259932E-1,3.0558612E-2],"split_indices":[1273,3118,842,872,3231,1297,3133,1298,3216,771,0,907,768,925,3281,2929,2977,3325,910,0,0,0,1095,632,860,2969,1061,632,3488,0,0,0,0,0,0,0,0,0,0,0,0,0,0,0,0,0,0,0,0,0,0],"split_type":[0,0,0,0,0,0,0,0,0,0,0,0,0,0,0,0,0,0,0,0,0,0,0,0,0,0,0,0,0,0,0,0,0,0,0,0,0,0,0,0,0,0,0,0,0,0,0,0,0,0,0],"sum_hessian":[3.694E3,2.152E3,1.542E3,2.09E3,6.2E1,1.196E3,3.46E2,1.115E3,9.75E2,2.4E1,3.8E1,6.8E1,1.128E3,1.57E2,1.89E2,9.28E2,1.87E2,3.62E2,6.13E2,2.1E1,3E0,3.7E1,3.1E1,6.7E2,4.58E2,1.33E2,2.4E1,8.1E1,1.08E2,5.61E2,3.67E2,2.3E1,1.64E2,2.16E2,1.46E2,8.5E1,5.28E2,1.8E1,1.3E1,3.93E2,2.77E2,2.66E2,1.92E2,1.2E2,1.3E1,7E0,1.7E1,4.5E1,3.6E1,7.2E1,3.6E1],"tree_param":{"num_deleted":"0","num_feature":"4094","num_nodes":"51","size_leaf_vector":"1"}},{"base_weights":[9.754129E-3,-1.5794811E0,1.9501036E0,-2.581752E0,1.1334879E0,5.1115805E-1,7.794081E0,-6.7613864E-1,-3.756537E0,-5.570842E-2,1.0008795E1,6.788881E0,-7.991682E-1,1.3351981E1,-1.1890607E0,5.373458E-1,-3.7646992E0,-2.78606E0,-5.1303487E0,4.753478E0,-1.9344565E0,1.5451139E1,-4.5860374E-1,-3.261967E-1,1.3394897E1,1.4819087E0,-2.2811842E0,1.5294755E1,-8.1440824E-1,3.7966305E-1,-3.024246E0,-1.8439654E-2,1.7336781E-1,-1.0275421E-2,-1.5659003E-1,-1.410413E-1,-4.919681E-2,-2.0026866E-1,-1.1267714E-1,2.4731272E-1,-4.2749383E-2,5.001807E-2,-1.2977578E-1,4.749083E-4,5.1925075E-1,3.6979053E-2,-8.957972E-2,-1.6371271E-1,8.555153E-2,2.4559058E-2,5.31303E-1,1.1075025E-3,1.788335E-1,-6.59865E-3,-1.3970874E-1,6.858398E-3,5.575547E-1,-8.8642225E-2,1.0707958E-1,-1.2482278E-1,5.4353673E-2],"categories":[],"categories_nodes":[],"categories_segments":[],"categories_sizes":[],"default_left":[0,0,0,0,0,0,0,0,0,0,0,0,0,0,0,0,0,0,0,0,0,0,0,0,0,0,0,0,0,0,0,0,0,0,0,0,0,0,0,0,0,0,0,0,0,0,0,0,0,0,0,0,0,0,0,0,0,0,0,0,0],"id":8,"left_children":[1,3,5,7,9,11,13,15,17,19,21,23,25,27,29,31,33,35,37,39,41,43,45,47,49,51,53,55,57,-1,59,-1,-1,-1,-1,-1,-1,-1,-1,-1,-1,-1,-1,-1,-1,-1,-1,-1,-1,-1,-1,-1,-1,-1,-1,-1,-1,-1,-1,-1,-1],"loss_changes":[1.1313314E4,5.504373E3,1.3863585E4,3.2843145E3,5.7971387E3,1.1001611E4,1.6380498E4,2.1536123E3,1.1159111E3,4.498745E3,3.745687E3,1.0882685E4,3.772025E3,5.6424297E3,3.3048806E3,2.1887463E3,5.5147095E2,1.0228882E3,4.633418E2,2.422787E3,2.5399592E3,2.4082324E2,1.25160065E2,1.700791E3,4.146119E3,2.5307642E3,2.7662046E3,4.509008E3,2.9819876E2,0E0,4.7996997E2,0E0,0E0,0E0,0E0,0E0,0E0,0E0,0E0,0E0,0E0,0E0,0E0,0E0,0E0,0E0,0E0,0E0,0E0,0E0,0E0,0E0,0E0,0E0,0E0,0E0,0E0,0E0,0E0,0E0,0E0],"parents":[2147483647,0,0,1,1,2,2,3,3,4,4,5,5,6,6,7,7,8,8,9,9,10,10,11,11,12,12,13,13,14,14,15,15,16,16,17,17,18,18,19,19,20,20,21,21,22,22,23,23,24,24,25,25,26,26,27,27,28,28,30,30],"right_children":[2,4,6,8,10,12,14,16,18,20,22,24,26,28,30,32,34,36,38,40,42,44,46,48,50,52,54,56,58,-1,60,-1,-1,-1,-1,-1,-1,-1,-1,-1,-1,-1,-1,-1,-1,-1,-1,-1,-1,-1,-1,-1,-1,-1,-1,-1,-1,-1,-1,-1,-1],"split_conditions":[-8.261323E-3,-3.9776266E-3,-8.699352E-3,-1.300613E-2,-5.7398755E-4,-3.320194E-2,-2.1950426E-3,-5.620994E-3,1.971824E-2,-1.5442646E-2,-2.1747977E-2,-7.616585E-3,-1.3723646E-2,-2.3302704E-2,-2.1452652E-2,-7.4278596E-3,-1.2742871E-2,-1.16220815E-2,-1.5778289E-3,-9.265524E-3,-1.367118E-2,-1.4613525E-2,1.2092037E-2,-9.955122E-3,-1.3728975E-2,-1.2494471E-2,-8.512873E-3,-1.7561425E-2,-8.382367E-3,3.7966305E-1,1.572106E-2,-1.8439654E-2,1.7336781E-1,-1.0275421E-2,-1.5659003E-1,-1.410413E-1,-4.919681E-2,-2.0026866E-1,-1.1267714E-1,2.4731272E-1,-4.2749383E-2,5.001807E-2,-1.2977578E-1,4.749083E-4,5.1925075E-1,3.6979053E-2,-8.957972E-2,-1.6371271E-1,8.555153E-2,2.4559058E-2,5.31303E-1,1.1075025E-3,1.788335E-1,-6.59865E-3,-1.3970874E-1,6.858398E-3,5.575547E-1,-8.8642225E-2,1.0707958E-1,-1.2482278E-1,5.4353673E-2],"split_indices":[1274,3341,1049,851,2914,3127,1219,1016,1179,2744,3535,692,2682,2046,3097,842,595,452,1305,2752,2639,257,3130,3326,2908,860,2953,2966,1298,0,1256,0,0,0,0,0,0,0,0,0,0,0,0,0,0,0,0,0,0,0,0,0,0,0,0,0,0,0,0,0,0],"split_type":[0,0,0,0,0,0,0,0,0,0,0,0,0,0,0,0,0,0,0,0,0,0,0,0,0,0,0,0,0,0,0,0,0,0,0,0,0,0,0,0,0,0,0,0,0,0,0,0,0,0,0,0,0,0,0,0,0,0,0,0,0],"sum_hessian":[3.655E3,2.01E3,1.645E3,1.468E3,5.42E2,1.326E3,3.19E2,5.64E2,9.04E2,4.84E2,5.8E1,2.24E2,1.102E3,1.95E2,1.24E2,4.09E2,1.55E2,5.42E2,3.62E2,1.33E2,3.51E2,3.6E1,2.2E1,1.11E2,1.13E2,4.34E2,6.68E2,1.71E2,2.4E1,1.1E1,1.13E2,3.37E2,7.2E1,3.7E1,1.18E2,2.42E2,3E2,2.19E2,1.43E2,9E1,4.3E1,1.3E2,2.21E2,1E0,3.5E1,1.5E1,7E0,4.1E1,7E1,2.2E1,9.1E1,3.23E2,1.11E2,3.29E2,3.39E2,1.8E1,1.53E2,1.8E1,6E0,9.8E1,1.5E1],"tree_param":{"num_deleted":"0","num_feature":"4094","num_nodes":"61","size_leaf_vector":"1"}},{"base_weights":[-8.046046E-2,-1.4538367E0,1.8740165E0,1.2722412E-1,-2.9959872E0,8.402884E0,6.0798174E-1,-9.583425E-1,5.146304E0,-5.673122E-1,-4.3464003E0,1.6492223E-2,1.4186062E1,-1.5821766E0,4.4438353E0,-3.1193614E0,8.007712E-2,1.563937E0,1.3646035E1,3.7813377E0,-2.9640436E0,-1.5238643E0,-4.8661304E0,-3.3680696E0,3.9013476E0,-1.5865023E0,1.618235E1,4.0688297E-1,-3.484911E0,9.423336E0,-4.7776553E-1,-1.3553898E-1,1.4540629E-2,2.0810337E-1,-1.9266697E-2,-3.7951075E-2,1.4564626E-1,1.1317932E-1,5.1121736E-1,2.525547E-1,-5.547419E-2,-1.29442E-1,1.776265E-2,1.6647497E-1,-1.0702819E-1,-1.7352611E-1,-5.22202E-2,-1.3514341E-1,1.004259E-2,1.5895873E-1,4.696868E-3,-8.55971E-2,6.702211E-2,-4.065707E-2,5.5131525E-1,3.6394056E-2,-1.3519967E-1,1.2696461E-1,-1.2971771E-1,-3.9311666E-2,4.2455128E-1,2.3241591E-1,-9.255786E-2],"categories":[],"categories_nodes":[],"categories_segments":[],"categories_sizes":[],"default_left":[0,0,0,0,0,0,0,0,0,0,0,0,0,0,0,0,0,0,0,0,0,0,0,0,0,0,0,0,0,0,0,0,0,0,0,0,0,0,0,0,0,0,0,0,0,0,0,0,0,0,0,0,0,0,0,0,0,0,0,0,0,0,0],"id":9,"left_children":[1,3,5,7,9,11,13,15,17,19,21,23,25,27,29,31,33,35,37,39,41,43,45,47,49,51,53,55,57,59,61,-1,-1,-1,-1,-1,-1,-1,-1,-1,-1,-1,-1,-1,-1,-1,-1,-1,-1,-1,-1,-1,-1,-1,-1,-1,-1,-1,-1,-1,-1,-1,-1],"loss_changes":[1.0028E4,5.3518535E3,1.2709726E4,5.9723394E3,3.626415E3,1.211825E4,1.0960645E4,2.0256128E3,5.787229E3,4.297297E3,9.946631E2,1.5223866E3,4.8336797E3,3.1582053E3,1.1644815E4,1.0657666E3,2.5967854E3,1.167515E3,7.47666E2,3.2335464E3,9.2367017E2,1.4983904E3,7.654424E2,1.7891681E2,1.8578027E2,1.2150002E2,1.5486992E3,1.342651E3,1.5661494E3,8.898666E3,4.471618E3,0E0,0E0,0E0,0E0,0E0,0E0,0E0,0E0,0E0,0E0,0E0,0E0,0E0,0E0,0E0,0E0,0E0,0E0,0E0,0E0,0E0,0E0,0E0,0E0,0E0,0E0,0E0,0E0,0E0,0E0,0E0,0E0],"parents":[2147483647,0,0,1,1,2,2,3,3,4,4,5,5,6,6,7,7,8,8,9,9,10,10,11,11,12,12,13,13,14,14,15,15,16,16,17,17,18,18,19,19,20,20,21,21,22,22,23,23,24,24,25,25,26,26,27,27,28,28,29,29,30,30],"right_children":[2,4,6,8,10,12,14,16,18,20,22,24,26,28,30,32,34,36,38,40,42,44,46,48,50,52,54,56,58,60,62,-1,-1,-1,-1,-1,-1,-1,-1,-1,-1,-1,-1,-1,-1,-1,-1,-1,-1,-1,-1,-1,-1,-1,-1,-1,-1,-1,-1,-1,-1,-1,-1],"split_conditions":[-6.762939E-3,-9.675966E-3,-1.5553685E-2,-1.6099323E-2,-1.2596256E-2,-1.8142091E-2,-3.633221E-3,-1.5075513E-2,1.8192599E-2,-3.1285957E-2,-1.47572765E-2,-8.20331E-3,-2.4764918E-2,-9.195856E-3,-1.0752844E-2,-1.1740489E-2,-1.4115739E-2,-1.1627263E-2,-1.6462041E-2,-1.5442674E-2,-1.500737E-2,-1.4238733E-2,-5.146877E-3,8.148834E-3,-4.970914E-2,8.767139E-3,-2.7872756E-2,-8.404514E-3,-1.3570221E-2,-1.8336207E-2,-5.8847656E-3,-1.3553898E-1,1.4540629E-2,2.0810337E-1,-1.9266697E-2,-3.7951075E-2,1.4564626E-1,1.1317932E-1,5.1121736E-1,2.525547E-1,-5.547419E-2,-1.29442E-1,1.776265E-2,1.6647497E-1,-1.0702819E-1,-1.7352611E-1,-5.22202E-2,-1.3514341E-1,1.004259E-2,1.5895873E-1,4.696868E-3,-8.55971E-2,6.702211E-2,-4.065707E-2,5.5131525E-1,3.6394056E-2,-1.3519967E-1,1.2696461E-1,-1.2971771E-1,-3.9311666E-2,4.2455128E-1,2.3241591E-1,-9.255786E-2],"split_indices":[1274,3252,488,3454,854,1049,842,2595,1094,1062,693,1716,3193,626,1082,3205,3013,2859,2566,3063,3324,910,3324,1270,0,1024,575,1458,939,864,1394,0,0,0,0,0,0,0,0,0,0,0,0,0,0,0,0,0,0,0,0,0,0,0,0,0,0,0,0,0,0,0,0],"split_type":[0,0,0,0,0,0,0,0,0,0,0,0,0,0,0,0,0,0,0,0,0,0,0,0,0,0,0,0,0,0,0,0,0,0,0,0,0,0,0,0,0,0,0,0,0,0,0,0,0,0,0,0,0,0,0,0,0,0,0,0,0,0,0],"sum_hessian":[3.722E3,2.187E3,1.535E3,1.083E3,1.104E3,2.43E2,1.292E3,8.95E2,1.88E2,3.98E2,7.06E2,1.02E2,1.41E2,8.25E2,4.67E2,2.86E2,6.09E2,1.38E2,5E1,1.4E2,2.58E2,1.14E2,5.92E2,5.5E1,4.7E1,1.6E1,1.25E2,4.06E2,4.19E2,2.29E2,2.38E2,2.22E2,6.4E1,5.3E1,5.56E2,7.3E1,6.5E1,1.1E1,3.9E1,8E1,6E1,2.01E2,5.7E1,2.1E1,9.3E1,5.21E2,7.1E1,4.5E1,1E1,3.6E1,1.1E1,1.4E1,2E0,4E0,1.21E2,3.56E2,5E1,2.2E1,3.97E2,5.8E1,1.71E2,5.3E1,1.85E2],"tree_param":{"num_deleted":"0","num_feature":"4094","num_nodes":"63","size_leaf_vector":"1"}},{"base_weights":[3.673327E-2,-1.3179137E0,2.0945253E0,-2.6155035E0,4.469731E-1,9.058473E0,9.4130695E-1,-1.3021048E0,-3.8494675E0,-2.3965414E-1,9.504335E0,6.36534E-1,1.4017133E1,-9.7653437E-1,5.0320826E0,-2.2738435E0,2.0357227E0,9.4979674E-1,-4.1962967E0,9.541303E0,-8.159824E-1,1.31639E1,-2.8959665E0,-3.1232355E0,4.553296E0,1.5516608E1,-7.6962955E-2,-4.88163E0,-1.6940933E-1,1.0381762E1,-4.07703E-1,-9.485117E-2,1.7963612E-2,1.6947524E-1,-6.48532E-2,1.6478442E-1,-2.6003648E-2,-1.4659896E-1,9.093621E-5,4.4265968E-1,-1.2484837E-2,3.8629253E-3,-1.3542126E-1,-2.8393067E-2,5.06656E-1,2.0749848E-2,-1.08081885E-1,-1.3048445E-1,8.589951E-3,1.9011894E-1,6.938523E-3,-1.524041E-2,5.283956E-1,4.898416E-2,-1.7463462E-1,-7.666985E-2,3.3531897E-2,4.9861285E-1,2.9384341E-2,1.7222063E-1,-6.9324635E-2],"categories":[],"categories_nodes":[],"categories_segments":[],"categories_sizes":[],"default_left":[0,0,0,0,0,0,0,0,0,0,0,0,0,0,0,0,0,0,0,0,0,0,0,0,0,0,0,0,0,0,0,0,0,0,0,0,0,0,0,0,0,0,0,0,0,0,0,0,0,0,0,0,0,0,0,0,0,0,0,0,0],"id":10,"left_children":[1,3,5,7,9,11,13,15,17,19,21,23,25,27,29,31,33,35,37,39,41,43,45,47,49,51,-1,53,55,57,59,-1,-1,-1,-1,-1,-1,-1,-1,-1,-1,-1,-1,-1,-1,-1,-1,-1,-1,-1,-1,-1,-1,-1,-1,-1,-1,-1,-1,-1,-1],"loss_changes":[1.0265886E4,5.094127E3,1.1681617E4,2.0413721E3,5.9044683E3,8.578705E3,9.934017E3,2.0782153E3,1.1208945E3,5.0531333E3,3.2984556E3,1.3334764E3,3.43758E3,2.7203584E3,1.1782948E4,8.6497144E2,1.9001553E3,3.811231E2,6.944033E2,1.9871763E3,2.6106575E3,1.7762139E3,4.3566467E1,1.4233606E2,2.2751263E2,1.1612383E3,0E0,4.67625E2,1.883707E3,9.203949E3,2.0696628E3,0E0,0E0,0E0,0E0,0E0,0E0,0E0,0E0,0E0,0E0,0E0,0E0,0E0,0E0,0E0,0E0,0E0,0E0,0E0,0E0,0E0,0E0,0E0,0E0,0E0,0E0,0E0,0E0,0E0,0E0],"parents":[2147483647,0,0,1,1,2,2,3,3,4,4,5,5,6,6,7,7,8,8,9,9,10,10,11,11,12,12,13,13,14,14,15,15,16,16,17,17,18,18,19,19,20,20,21,21,22,22,23,23,24,24,25,25,27,27,28,28,29,29,30,30],"right_children":[2,4,6,8,10,12,14,16,18,20,22,24,26,28,30,32,34,36,38,40,42,44,46,48,50,52,-1,54,56,58,60,-1,-1,-1,-1,-1,-1,-1,-1,-1,-1,-1,-1,-1,-1,-1,-1,-1,-1,-1,-1,-1,-1,-1,-1,-1,-1,-1,-1,-1,-1],"split_conditions":[-6.762939E-3,-5.889546E-3,-1.9732617E-2,2.7120453E-3,4.9651675E-2,-2.0408818E-2,-9.4486214E-4,3.5767916E-3,-7.604479E-3,-1.6528144E-2,3.958102E-3,-1.148891E-2,6.8001435E-3,-2.1884596E-2,-8.532211E-3,-1.3363565E-2,-9.579089E-3,-1.4427895E-2,4.3046377E-3,-1.6898401E-2,3.9085615E-3,-1.2683144E-2,-4.29707E-2,-1.65707E-2,-4.1945677E-2,-3.951575E-2,-7.6962955E-2,-2.1303901E-2,-6.0585733E-3,-2.4846194E-3,-7.105182E-3,-9.485117E-2,1.7963612E-2,1.6947524E-1,-6.48532E-2,1.6478442E-1,-2.6003648E-2,-1.4659896E-1,9.093621E-5,4.4265968E-1,-1.2484837E-2,3.8629253E-3,-1.3542126E-1,-2.8393067E-2,5.06656E-1,2.0749848E-2,-1.08081885E-1,-1.3048445E-1,8.589951E-3,1.9011894E-1,6.938523E-3,-1.524041E-2,5.283956E-1,4.898416E-2,-1.7463462E-1,-7.666985E-2,3.3531897E-2,4.9861285E-1,2.9384341E-2,1.7222063E-1,-6.9324635E-2],"split_indices":[1274,703,2535,2977,3079,3096,842,3270,969,966,3631,3738,2073,2972,1086,3300,851,652,2736,1019,1017,1569,1283,3581,0,2834,0,1551,762,922,1432,0,0,0,0,0,0,0,0,0,0,0,0,0,0,0,0,0,0,0,0,0,0,0,0,0,0,0,0,0,0],"split_type":[0,0,0,0,0,0,0,0,0,0,0,0,0,0,0,0,0,0,0,0,0,0,0,0,0,0,0,0,0,0,0,0,0,0,0,0,0,0,0,0,0,0,0,0,0,0,0,0,0,0,0,0,0,0,0,0,0,0,0,0,0],"sum_hessian":[3.669E3,2.214E3,1.455E3,1.274E3,9.4E2,2E2,1.255E3,6.24E2,6.5E2,8.8E2,6E1,7.7E1,1.23E2,8.58E2,3.97E2,4.85E2,1.39E2,4.3E1,6.07E2,4.3E1,8.37E2,4.6E1,1.4E1,4E1,3.7E1,1.13E2,1E1,1.41E2,7.17E2,1.97E2,2E2,3.98E2,8.7E1,7.7E1,6.2E1,9E0,3.4E1,5.7E2,3.7E1,2.9E1,1.4E1,6.58E2,1.79E2,7E0,3.9E1,1E0,1.3E1,3.1E1,9E0,2.7E1,1E1,4E0,1.09E2,8E0,1.33E2,2.52E2,4.65E2,1.28E2,6.9E1,4.3E1,1.57E2],"tree_param":{"num_deleted":"0","num_feature":"4094","num_nodes":"61","size_leaf_vector":"1"}},{"base_weights":[7.629081E-2,-1.2703143E0,1.9922099E0,-2.1904588E0,1.1273049E0,4.7729487E0,-4.9933234E-1,-7.051442E-1,-3.664235E0,-3.441643E-2,8.755937E0,-4.295616E-1,8.406741E0,1.1652048E0,-3.575107E0,2.2237892E-1,-3.9000375E0,-3.7935271E0,5.4763746E0,4.8598967E0,-1.9781829E0,1.3116377E1,-3.5593063E-1,-2.4715216E0,1.0388962E1,-2.7121317E0,1.0301169E1,-9.008845E-2,9.021942E0,-4.0064073E-1,-4.974675E0,-2.861619E-2,1.7372945E-1,-1.4592989E-1,-1.343085E-2,-8.318678E-2,-1.5486938E-1,-2.9409451E-2,2.117276E-1,-2.17688E-2,2.5532266E-1,2.6166478E-2,-1.2713209E-1,2.0629043E-2,4.87535E-1,6.0316768E-2,-7.963683E-2,-1.2834701E-1,3.6021527E-2,4.5358938E-1,-6.387552E-2,1.4291191E-1,-1.318772E-1,4.4981027E-1,1.5313412E-1,2.5741806E-2,-1.226287E-1,4.4755408E-1,4.995155E-2,-9.315522E-2,6.402727E-2,-1.7455563E-1,1.1562408E-1],"categories":[],"categories_nodes":[],"categories_segments":[],"categories_sizes":[],"default_left":[0,0,0,0,0,0,0,0,0,0,0,0,0,0,0,0,0,0,0,0,0,0,0,0,0,0,0,0,0,0,0,0,0,0,0,0,0,0,0,0,0,0,0,0,0,0,0,0,0,0,0,0,0,0,0,0,0,0,0,0,0,0,0],"id":11,"left_children":[1,3,5,7,9,11,13,15,17,19,21,23,25,27,29,31,33,35,37,39,41,43,45,47,49,51,53,55,57,59,61,-1,-1,-1,-1,-1,-1,-1,-1,-1,-1,-1,-1,-1,-1,-1,-1,-1,-1,-1,-1,-1,-1,-1,-1,-1,-1,-1,-1,-1,-1,-1,-1],"loss_changes":[9.619884E3,4.848272E3,1.0678394E4,3.4515532E3,5.4248945E3,1.3785621E4,4.216126E3,2.3704092E3,1.0814521E3,5.183481E3,3.2462505E3,6.9345205E3,9.226797E3,5.2908643E3,1.2697812E3,3.497863E3,3.298601E2,8.33417E2,1.2599716E2,2.5315505E3,2.071202E3,1.1248496E3,1.8006577E2,1.3788588E3,2.2951084E3,7.466085E2,6.6112812E3,1.5145066E3,2.4127002E3,5.8757806E2,7.10959E2,0E0,0E0,0E0,0E0,0E0,0E0,0E0,0E0,0E0,0E0,0E0,0E0,0E0,0E0,0E0,0E0,0E0,0E0,0E0,0E0,0E0,0E0,0E0,0E0,0E0,0E0,0E0,0E0,0E0,0E0,0E0,0E0],"parents":[2147483647,0,0,1,1,2,2,3,3,4,4,5,5,6,6,7,7,8,8,9,9,10,10,11,11,12,12,13,13,14,14,15,15,16,16,17,17,18,18,19,19,20,20,21,21,22,22,23,23,24,24,25,25,26,26,27,27,28,28,29,29,30,30],"right_children":[2,4,6,8,10,12,14,16,18,20,22,24,26,28,30,32,34,36,38,40,42,44,46,48,50,52,54,56,58,60,62,-1,-1,-1,-1,-1,-1,-1,-1,-1,-1,-1,-1,-1,-1,-1,-1,-1,-1,-1,-1,-1,-1,-1,-1,-1,-1,-1,-1,-1,-1,-1,-1],"split_conditions":[-6.762939E-3,-3.6165363E-3,-3.0917854E-3,-1.0654415E-2,-3.0146728E-3,-7.7133807E-3,-4.374973E-3,4.202825E-3,5.69503E-2,-1.5102555E-2,-4.7479207E-3,-1.3235446E-2,-1.6897349E-2,2.8950635E-3,-1.1660587E-2,-3.1240156E-3,9.5596566E-4,-1.2692089E-2,-6.926108E-2,-2.1006107E-2,-2.0122336E-2,-2.0448597E-2,-7.961567E-3,-3.8895719E-3,-7.0698354E-3,-9.333387E-3,-9.212266E-3,-7.910134E-3,-4.937911E-3,-2.9843803E-3,9.820356E-2,-2.861619E-2,1.7372945E-1,-1.4592989E-1,-1.343085E-2,-8.318678E-2,-1.5486938E-1,-2.9409451E-2,2.117276E-1,-2.17688E-2,2.5532266E-1,2.6166478E-2,-1.2713209E-1,2.0629043E-2,4.87535E-1,6.0316768E-2,-7.963683E-2,-1.2834701E-1,3.6021527E-2,4.5358938E-1,-6.387552E-2,1.4291191E-1,-1.318772E-1,4.4981027E-1,1.5313412E-1,2.5741806E-2,-1.226287E-1,4.4755408E-1,4.995155E-2,-9.315522E-2,6.402727E-2,-1.7455563E-1,1.1562408E-1],"split_indices":[1274,3341,911,843,2914,692,488,1047,1089,2744,1331,1049,1147,813,2734,1405,416,3288,257,1009,3520,2686,2322,2972,88,777,1245,872,1278,2974,1235,0,0,0,0,0,0,0,0,0,0,0,0,0,0,0,0,0,0,0,0,0,0,0,0,0,0,0,0,0,0,0,0],"split_type":[0,0,0,0,0,0,0,0,0,0,0,0,0,0,0,0,0,0,0,0,0,0,0,0,0,0,0,0,0,0,0,0,0,0,0,0,0,0,0,0,0,0,0,0,0,0,0,0,0,0,0,0,0,0,0,0,0,0,0,0,0,0,0],"sum_hessian":[3.715E3,2.183E3,1.532E3,1.578E3,6.05E2,7.21E2,8.11E2,7.91E2,7.87E2,5.31E2,7.4E1,2.99E2,4.22E2,5.29E2,2.82E2,6.18E2,1.73E2,7.8E2,7E0,1.48E2,3.83E2,4.8E1,2.6E1,2.56E2,4.3E1,6.1E1,3.61E2,4.62E2,6.7E1,8.9E1,1.93E2,5.13E2,1.05E2,1.48E2,2.5E1,3.41E2,4.39E2,1E0,6E0,5.3E1,9.5E1,1.57E2,2.26E2,7E0,4.1E1,1.3E1,1.3E1,1.82E2,7.4E1,3.3E1,1E1,7E0,5.4E1,2.19E2,1.42E2,3.77E2,8.5E1,3.8E1,2.9E1,4.3E1,4.6E1,1.88E2,5E0],"tree_param":{"num_deleted":"0","num_feature":"4094","num_nodes":"63","size_leaf_vector":"1"}},{"base_weights":[2.9730322E-2,-1.3671751E0,1.7521971E0,-1.5307701E0,1.1312738E1,8.360006E0,6.812379E-1,2.6624637E-2,-3.1592433E0,-5.0819016E-1,4.071737E-1,2.718662E-1,1.2972373E1,-1.1862383E0,4.599329E0,-1.0071275E0,3.9725268E0,9.028648E0,-3.5914047E0,-1.993566E-2,1.1390487E-3,-2.7029262E0,3.7350106E0,-1.6038013E0,1.459113E1,5.700184E-1,-3.0395103E0,8.505088E0,-1.3656725E0,-8.366588E-3,-1.487864E-1,-7.829506E-2,2.2464995E-1,4.260878E-1,-5.1619608E-2,-8.25631E-2,-1.4734474E-1,-1.2815805E-1,1.3936105E-2,-1.9679496E-2,1.6728035E-1,-8.2826965E-2,6.938007E-2,5.076256E-1,-1.804754E-2,-9.187844E-3,1.6462013E-1,-6.2801526E-3,-1.3890226E-1,4.4755703E-1,2.5997441E-2,1.8839274E-1,-9.850846E-2],"categories":[],"categories_nodes":[],"categories_segments":[],"categories_sizes":[],"default_left":[0,0,0,0,0,0,0,0,0,0,0,0,0,0,0,0,0,0,0,0,0,0,0,0,0,0,0,0,0,0,0,0,0,0,0,0,0,0,0,0,0,0,0,0,0,0,0,0,0,0,0,0,0],"id":12,"left_children":[1,3,5,7,9,11,13,15,17,19,-1,21,23,25,27,29,31,33,35,-1,-1,37,39,41,43,45,47,49,51,-1,-1,-1,-1,-1,-1,-1,-1,-1,-1,-1,-1,-1,-1,-1,-1,-1,-1,-1,-1,-1,-1,-1,-1],"loss_changes":[8.918917E3,4.3654014E3,1.1707301E4,5.141139E3,3.9012012E2,8.589298E3,1.0543968E4,4.281636E3,5.4427188E3,6.237273E-1,0E0,1.0060028E3,3.6273438E3,3.1948154E3,1.0911114E4,2.1980989E3,4.089173E3,1.6439995E3,8.5086914E2,0E0,0E0,2.1009528E2,2.858266E2,1.08157364E2,1.8131367E3,1.9282085E3,1.6130698E3,1.1075852E4,2.3245542E3,0E0,0E0,0E0,0E0,0E0,0E0,0E0,0E0,0E0,0E0,0E0,0E0,0E0,0E0,0E0,0E0,0E0,0E0,0E0,0E0,0E0,0E0,0E0,0E0],"parents":[2147483647,0,0,1,1,2,2,3,3,4,4,5,5,6,6,7,7,8,8,9,9,11,11,12,12,13,13,14,14,15,15,16,16,17,17,18,18,21,21,22,22,23,23,24,24,25,25,26,26,27,27,28,28],"right_children":[2,4,6,8,10,12,14,16,18,20,-1,22,24,26,28,30,32,34,36,-1,-1,38,40,42,44,46,48,50,52,-1,-1,-1,-1,-1,-1,-1,-1,-1,-1,-1,-1,-1,-1,-1,-1,-1,-1,-1,-1,-1,-1,-1,-1],"split_conditions":[-8.261323E-3,1.8487558E-1,-1.6298892E-2,-1.0219705E-2,-1.8826346E-3,-2.5644168E-2,-4.1728467E-3,-5.9438753E-3,-1.7386787E-2,-8.098841E-2,4.071737E-1,-1.5309481E-2,-2.2243846E-2,-1.1729133E-2,-1.4046965E-3,-4.660672E-3,-3.6847687E-3,-8.060456E-3,-1.4139383E-2,-1.993566E-2,1.1390487E-3,-7.2756535E-3,-1.5514993E-2,1.1713343E-2,-4.786519E-4,-8.893945E-3,-7.0984946E-3,-1.4939203E-2,-6.260895E-3,-8.366588E-3,-1.487864E-1,-7.829506E-2,2.2464995E-1,4.260878E-1,-5.1619608E-2,-8.25631E-2,-1.4734474E-1,-1.2815805E-1,1.3936105E-2,-1.9679496E-2,1.6728035E-1,-8.2826965E-2,6.938007E-2,5.076256E-1,-1.804754E-2,-9.187844E-3,1.6462013E-1,-6.2801526E-3,-1.3890226E-1,4.4755703E-1,2.5997441E-2,1.8839274E-1,-9.850846E-2],"split_indices":[1274,3107,488,851,257,1049,2889,842,3012,0,0,585,1620,2673,2958,1536,1112,782,3498,0,0,1034,2671,2567,3266,2679,2815,3133,1330,0,0,0,0,0,0,0,0,0,0,0,0,0,0,0,0,0,0,0,0,0,0,0,0],"split_type":[0,0,0,0,0,0,0,0,0,0,0,0,0,0,0,0,0,0,0,0,0,0,0,0,0,0,0,0,0,0,0,0,0,0,0,0,0,0,0,0,0,0,0,0,0,0,0,0,0,0,0,0,0],"sum_hessian":[3.693E3,2.04E3,1.653E3,2.02E3,2E1,2.24E2,1.429E3,1.036E3,9.84E2,2E0,1.8E1,8.4E1,1.4E2,9.71E2,4.58E2,8.25E2,2.11E2,2.9E1,9.55E2,1E0,1E0,4.6E1,3.8E1,1.4E1,1.26E2,5.01E2,4.7E2,2.75E2,1.83E2,6.86E2,1.39E2,6.6E1,1.45E2,2E1,9E0,4.46E2,5.09E2,3.2E1,1.4E1,1E1,2.8E1,1.3E1,1E0,1.19E2,7E0,4.26E2,7.5E1,1.41E2,3.29E2,1.62E2,1.13E2,3.1E1,1.52E2],"tree_param":{"num_deleted":"0","num_feature":"4094","num_nodes":"53","size_leaf_vector":"1"}},{"base_weights":[5.6371424E-2,-6.535668E-1,3.449376E0,4.0880293E-1,-2.4172015E0,-2.8892531E0,6.4101996E0,-5.6207454E-1,4.1187735E0,-7.0754075E-1,-3.5591888E0,-4.6889E0,1.4521965E0,1.100876E1,1.2124398E0,-3.366482E0,1.6587095E-1,-5.722255E-1,8.532466E0,-2.7371972E0,1.7301569E0,-1.4962355E0,-4.255122E0,-4.8008986E0,2.1842775E-1,8.003773E0,-7.071472E-1,5.766802E-1,1.381259E1,1.0557849E1,-6.063153E-1,-1.2419835E-1,3.156934E-2,1.7830707E-1,-1.4416159E-2,-8.2205825E-2,1.4052133E-1,-6.975663E-2,3.7111694E-1,-1.098843E-1,1.4792849E-1,1.8745561E-1,-3.2871973E-2,-1.14763305E-1,1.0628165E-1,-8.99416E-2,-1.7114507E-1,-1.0218382E-1,-1.874714E-1,2.4994906E-2,-1.420755E-2,2.8763348E-1,4.472378E-2,8.629362E-3,-8.872216E-2,-1.016871E-1,8.487945E-2,2.9500467E-3,4.8820254E-1,4.4360515E-2,4.114765E-1,3.473821E-2,-1.1905582E-1],"categories":[],"categories_nodes":[],"categories_segments":[],"categories_sizes":[],"default_left":[0,0,0,0,0,0,0,0,0,0,0,0,0,0,0,0,0,0,0,0,0,0,0,0,0,0,0,0,0,0,0,0,0,0,0,0,0,0,0,0,0,0,0,0,0,0,0,0,0,0,0,0,0,0,0,0,0,0,0,0,0,0,0],"id":13,"left_children":[1,3,5,7,9,11,13,15,17,19,21,23,25,27,29,31,33,35,37,39,41,43,45,47,49,51,53,55,57,59,61,-1,-1,-1,-1,-1,-1,-1,-1,-1,-1,-1,-1,-1,-1,-1,-1,-1,-1,-1,-1,-1,-1,-1,-1,-1,-1,-1,-1,-1,-1,-1,-1],"loss_changes":[8.838808E3,5.693087E3,1.2043102E4,6.8592407E3,2.212085E3,1.6634235E3,1.0302916E4,3.090315E3,8.209797E3,2.3377478E3,9.365244E2,8.851465E1,9.7123096E2,6.6694375E3,3.645699E3,5.8773267E2,3.8613389E3,1.9291522E3,6.189882E3,1.2391638E3,2.386504E3,1.8092667E3,6.3757227E2,9.9997314E1,5.770119E0,2.7558594E0,1.1308846E2,4.6777563E2,2.61925E3,5.181572E2,9.509509E2,0E0,0E0,0E0,0E0,0E0,0E0,0E0,0E0,0E0,0E0,0E0,0E0,0E0,0E0,0E0,0E0,0E0,0E0,0E0,0E0,0E0,0E0,0E0,0E0,0E0,0E0,0E0,0E0,0E0,0E0,0E0,0E0],"parents":[2147483647,0,0,1,1,2,2,3,3,4,4,5,5,6,6,7,7,8,8,9,9,10,10,11,11,12,12,13,13,14,14,15,15,16,16,17,17,18,18,19,19,20,20,21,21,22,22,23,23,24,24,25,25,26,26,27,27,28,28,29,29,30,30],"right_children":[2,4,6,8,10,12,14,16,18,20,22,24,26,28,30,32,34,36,38,40,42,44,46,48,50,52,54,56,58,60,62,-1,-1,-1,-1,-1,-1,-1,-1,-1,-1,-1,-1,-1,-1,-1,-1,-1,-1,-1,-1,-1,-1,-1,-1,-1,-1,-1,-1,-1,-1,-1,-1],"split_conditions":[6.393816E-3,-9.161737E-3,-2.342491E-2,-1.2267996E-2,-6.368133E-3,-1.3694535E-2,2.93669E-3,-1.0676597E-2,-1.28665995E-2,-1.785153E-2,-2.0007838E-3,-1.2292512E-2,-1.16066E-2,-1.9869538E-2,-3.058934E-2,-1.2132514E-2,-1.5972722E-2,9.803482E-4,-1.215113E-2,1.2917352E-2,-1.2785493E-2,-1.1711749E-2,-2.0129874E-2,-4.065132E-3,-6.078227E-1,-2.641423E-2,-8.896858E-3,-2.7370318E-3,-1.15905525E-2,3.858984E-3,9.328179E-2,-1.2419835E-1,3.156934E-2,1.7830707E-1,-1.4416159E-2,-8.2205825E-2,1.4052133E-1,-6.975663E-2,3.7111694E-1,-1.098843E-1,1.4792849E-1,1.8745561E-1,-3.2871973E-2,-1.14763305E-1,1.0628165E-1,-8.99416E-2,-1.7114507E-1,-1.0218382E-1,-1.874714E-1,2.4994906E-2,-1.420755E-2,2.8763348E-1,4.472378E-2,8.629362E-3,-8.872216E-2,-1.016871E-1,8.487945E-2,2.9500467E-3,4.8820254E-1,4.4360515E-2,4.114765E-1,3.473821E-2,-1.1905582E-1],"split_indices":[842,2878,1011,3300,849,1276,1314,1144,2687,3058,768,3323,2957,1286,1245,3423,2752,3188,3155,3288,3340,3320,1260,1503,0,1287,2916,828,674,1288,967,0,0,0,0,0,0,0,0,0,0,0,0,0,0,0,0,0,0,0,0,0,0,0,0,0,0,0,0,0,0,0,0],"split_type":[0,0,0,0,0,0,0,0,0,0,0,0,0,0,0,0,0,0,0,0,0,0,0,0,0,0,0,0,0,0,0,0,0,0,0,0,0,0,0,0,0,0,0,0,0,0,0,0,0,0,0,0,0,0,0,0,0,0,0,0,0,0,0],"sum_hessian":[3.656E3,3.028E3,6.28E2,1.893E3,1.135E3,2E2,4.28E2,1.505E3,3.88E2,4.59E2,6.76E2,1.41E2,5.9E1,2.23E2,2.05E2,3.05E2,1.2E3,1.91E2,1.97E2,2.5E2,2.09E2,1.76E2,5E2,1.38E2,3E0,1E1,4.9E1,4.9E1,1.74E2,2.8E1,1.77E2,2.79E2,2.6E1,1.18E2,1.082E3,1.39E2,5.2E1,4.1E1,1.56E2,2.34E2,1.6E1,8.2E1,1.27E2,1.25E2,5.1E1,2.04E2,2.96E2,5.9E1,7.9E1,1E0,2E0,7E0,3E0,3.7E1,1.2E1,1.6E1,3.3E1,1.3E1,1.61E2,7E0,2.1E1,1.17E2,6E1],"tree_param":{"num_deleted":"0","num_feature":"4094","num_nodes":"63","size_leaf_vector":"1"}},{"base_weights":[2.118318E-2,-1.2681401E0,1.6081526E0,-2.1728246E0,1.2594116E0,7.979652E0,6.493576E-1,-4.5924753E-1,-3.199909E0,6.4582114E0,-5.147461E-1,2.5562435E-1,1.2133578E1,-3.5932893E-1,6.5686226E0,-2.5344143E0,8.4199905E-1,-2.4195457E0,-4.535261E0,-1.2147343E0,9.986178E0,-2.844091E0,3.8666034E0,-3.641318E0,3.4789116E0,-1.4984969E0,1.3718994E1,1.8180444E0,-1.6073357E0,-1.5210383E0,1.0381707E1,-1.2044286E-1,2.9514354E-2,-2.0878293E-2,1.139147E-1,-8.273358E-2,1.7859758E-1,-7.904985E-2,-1.7111777E-1,-1.2360563E-1,2.053583E-2,1.455658E-1,4.9687493E-1,-2.1823708E-2,-1.4853299E-1,3.669089E-1,5.6385066E-2,-1.2571667E-1,1.39577E-4,-6.334362E-3,1.638205E-1,-8.6615756E-2,5.2765418E-2,-3.4617174E-2,4.8067608E-1,2.4773212E-1,1.2867662E-2,-1.710811E-1,-2.6415264E-2,7.6802835E-2,-8.5684404E-2,-2.106949E-2,4.4058597E-1],"categories":[],"categories_nodes":[],"categories_segments":[],"categories_sizes":[],"default_left":[0,0,0,0,0,0,0,0,0,0,0,0,0,0,0,0,0,0,0,0,0,0,0,0,0,0,0,0,0,0,0,0,0,0,0,0,0,0,0,0,0,0,0,0,0,0,0,0,0,0,0,0,0,0,0,0,0,0,0,0,0,0,0],"id":14,"left_children":[1,3,5,7,9,11,13,15,17,19,21,23,25,27,29,31,33,35,37,39,41,43,45,47,49,51,53,55,57,59,61,-1,-1,-1,-1,-1,-1,-1,-1,-1,-1,-1,-1,-1,-1,-1,-1,-1,-1,-1,-1,-1,-1,-1,-1,-1,-1,-1,-1,-1,-1,-1,-1],"loss_changes":[7.590613E3,4.6993687E3,1.0122832E4,2.647266E3,5.0395205E3,6.937674E3,8.691043E3,1.5644004E3,9.069004E2,3.843479E3,4.2794717E3,1.1285635E3,3.1868047E3,3.4111445E3,6.6450703E3,8.909523E2,1.4053433E3,5.77031E2,4.031621E2,2.5042374E2,2.2788945E3,9.786692E2,2.159569E3,2.8172363E1,2.7797144E2,1.0321273E2,1.8371094E3,3.720123E3,2.2764497E3,3.5277545E2,4.913823E3,0E0,0E0,0E0,0E0,0E0,0E0,0E0,0E0,0E0,0E0,0E0,0E0,0E0,0E0,0E0,0E0,0E0,0E0,0E0,0E0,0E0,0E0,0E0,0E0,0E0,0E0,0E0,0E0,0E0,0E0,0E0,0E0],"parents":[2147483647,0,0,1,1,2,2,3,3,4,4,5,5,6,6,7,7,8,8,9,9,10,10,11,11,12,12,13,13,14,14,15,15,16,16,17,17,18,18,19,19,20,20,21,21,22,22,23,23,24,24,25,25,26,26,27,27,28,28,29,29,30,30],"right_children":[2,4,6,8,10,12,14,16,18,20,22,24,26,28,30,32,34,36,38,40,42,44,46,48,50,52,54,56,58,60,62,-1,-1,-1,-1,-1,-1,-1,-1,-1,-1,-1,-1,-1,-1,-1,-1,-1,-1,-1,-1,-1,-1,-1,-1,-1,-1,-1,-1,-1,-1,-1,-1],"split_conditions":[-8.261323E-3,-3.6165363E-3,-2.0248683E-2,-1.3129637E-2,-8.911237E-3,-2.532909E-2,1.6411019E-3,-1.3456912E-2,-8.369429E-3,-5.0980438E-2,-7.075835E-3,-1.9249609E-2,-8.543818E-3,-5.7837963E-3,-1.6665991E-2,-5.067526E-3,-1.2691689E-2,2.2169212E-1,-1.4713197E-2,-1.9748572E-3,-9.700994E-3,-9.7404765E-3,-1.8521072E-2,1.4121647E-2,-1.6397242E-2,1.9556848E-2,-2.8209165E-2,-9.183447E-3,-1.7552976E-2,-1.0384442E-2,-1.9301213E-2,-1.2044286E-1,2.9514354E-2,-2.0878293E-2,1.139147E-1,-8.273358E-2,1.7859758E-1,-7.904985E-2,-1.7111777E-1,-1.2360563E-1,2.053583E-2,1.455658E-1,4.9687493E-1,-2.1823708E-2,-1.4853299E-1,3.669089E-1,5.6385066E-2,-1.2571667E-1,1.39577E-4,-6.334362E-3,1.638205E-1,-8.6615756E-2,5.2765418E-2,-3.4617174E-2,4.8067608E-1,2.4773212E-1,1.2867662E-2,-1.710811E-1,-2.6415264E-2,7.6802835E-2,-8.5684404E-2,-2.106949E-2,4.4058597E-1],"split_indices":[1274,3341,2535,851,3363,1049,2676,631,3519,3056,2736,3519,3155,2815,2909,882,1236,3100,3288,3361,656,2668,3378,2573,2595,1285,3667,939,2974,832,2973,0,0,0,0,0,0,0,0,0,0,0,0,0,0,0,0,0,0,0,0,0,0,0,0,0,0,0,0,0,0,0,0],"split_type":[0,0,0,0,0,0,0,0,0,0,0,0,0,0,0,0,0,0,0,0,0,0,0,0,0,0,0,0,0,0,0,0,0,0,0,0,0,0,0,0,0,0,0,0,0,0,0,0,0,0,0,0,0,0,0,0,0,0,0,0,0,0,0],"sum_hessian":[3.696E3,2.04E3,1.656E3,1.503E3,5.37E2,2.1E2,1.446E3,5.67E2,9.36E2,1.32E2,4.05E2,7.6E1,1.34E2,1.241E3,2.05E2,2.16E2,3.51E2,6.03E2,3.33E2,4.3E1,8.9E1,2.66E2,1.39E2,3.4E1,4.2E1,1.4E1,1.2E2,4.51E2,7.9E2,6.7E1,1.38E2,1.62E2,5.4E1,2.28E2,1.23E2,6E2,3E0,8.8E1,2.45E2,1.5E1,2.8E1,4.9E1,4E1,1.2E2,1.46E2,2.5E1,1.14E2,3.2E1,2E0,1.4E1,2.8E1,1.1E1,3E0,7E0,1.13E2,8.4E1,3.67E2,1.37E2,6.53E2,1.3E1,5.4E1,3.1E1,1.07E2],"tree_param":{"num_deleted":"0","num_feature":"4094","num_nodes":"63","size_leaf_vector":"1"}},{"base_weights":[3.23709E-2,-6.170102E-1,3.2772615E0,-2.1268494E0,3.284417E-1,6.840405E0,-7.9747844E-1,-1.5388486E0,-4.0774302E0,2.5595317E0,-8.7120056E-1,-1.1839885E0,1.0351113E1,1.1639989E1,-2.246877E0,-2.3273523E0,2.2273092E-1,2.3967655E0,-4.4399395E0,1.0696586E1,3.250271E-1,4.964022E0,-1.3881211E0,-3.1053069E0,1.4400369E0,4.9199367E0,1.3169812E1,3.9405116E-1,1.7107318E-3,-4.1042886E0,5.051709E-1,-9.08303E-2,4.196493E-3,5.6068722E-2,-4.8775878E-2,-4.7865927E-2,2.0190164E-1,-1.5747781E-1,-3.8262974E-3,4.6210346E-1,7.041165E-2,-8.012636E-2,1.1456325E-1,-1.1198673E-3,4.0205273E-1,9.0707755E-3,-7.9900205E-2,-1.1445372E-1,1.9100275E-2,1.7806083E-1,5.3638644E-3,6.1913976E-4,1.962924E-1,1.14055514E-1,4.7596613E-1,3.7498586E-2,-1.5807813E-1,-6.0179077E-2,1.50202E-1],"categories":[],"categories_nodes":[],"categories_segments":[],"categories_sizes":[],"default_left":[0,0,0,0,0,0,0,0,0,0,0,0,0,0,0,0,0,0,0,0,0,0,0,0,0,0,0,0,0,0,0,0,0,0,0,0,0,0,0,0,0,0,0,0,0,0,0,0,0,0,0,0,0,0,0,0,0,0,0],"id":15,"left_children":[1,3,5,7,9,11,13,15,17,19,21,23,25,27,29,31,33,35,37,39,41,43,45,47,49,51,53,-1,-1,55,57,-1,-1,-1,-1,-1,-1,-1,-1,-1,-1,-1,-1,-1,-1,-1,-1,-1,-1,-1,-1,-1,-1,-1,-1,-1,-1,-1,-1],"loss_changes":[7.8207847E3,4.4198613E3,9.02326E3,1.3237773E3,5.1218706E3,9.406215E3,5.496317E3,1.2910408E3,7.114878E2,1.2138057E4,3.8055532E3,5.6974506E2,3.0880215E3,1.3001318E2,1.3939083E3,6.9397705E2,7.607205E2,3.3520422E2,3.9738086E2,3.9508926E3,4.7144478E3,3.7484546E3,2.0061558E3,1.03776245E2,2.4765799E2,4.6599243E2,1.5582266E3,0E0,0E0,6.4185986E2,1.1513298E3,0E0,0E0,0E0,0E0,0E0,0E0,0E0,0E0,0E0,0E0,0E0,0E0,0E0,0E0,0E0,0E0,0E0,0E0,0E0,0E0,0E0,0E0,0E0,0E0,0E0,0E0,0E0,0E0],"parents":[2147483647,0,0,1,1,2,2,3,3,4,4,5,5,6,6,7,7,8,8,9,9,10,10,11,11,12,12,13,13,14,14,15,15,16,16,17,17,18,18,19,19,20,20,21,21,22,22,23,23,24,24,25,25,26,26,29,29,30,30],"right_children":[2,4,6,8,10,12,14,16,18,20,22,24,26,28,30,32,34,36,38,40,42,44,46,48,50,52,54,-1,-1,56,58,-1,-1,-1,-1,-1,-1,-1,-1,-1,-1,-1,-1,-1,-1,-1,-1,-1,-1,-1,-1,-1,-1,-1,-1,-1,-1,-1,-1],"split_conditions":[-8.319261E-4,4.0082107E-3,1.7224267E-3,-5.5887266E-3,-9.958878E-3,-1.0534386E-2,-1.7913125E-2,-7.184761E-3,-1.45922415E-2,-2.6241867E-2,-2.0208038E-2,-9.388586E-3,-3.5900853E-3,-2.4133144E-2,3.1674E-2,1.0114253E-2,-5.5515557E-3,-1.9878091E-2,1.188904E-2,8.528322E-3,-1.2855329E-2,-2.3778163E-2,-7.5879293E-3,-6.07082E-3,-2.6388872E-2,-1.1326643E-2,-2.55796E-2,3.9405116E-1,1.7107318E-3,-2.673785E-2,-5.450831E-3,-9.08303E-2,4.196493E-3,5.6068722E-2,-4.8775878E-2,-4.7865927E-2,2.0190164E-1,-1.5747781E-1,-3.8262974E-3,4.6210346E-1,7.041165E-2,-8.012636E-2,1.1456325E-1,-1.1198673E-3,4.0205273E-1,9.0707755E-3,-7.9900205E-2,-1.1445372E-1,1.9100275E-2,1.7806083E-1,5.3638644E-3,6.1913976E-4,1.962924E-1,1.14055514E-1,4.7596613E-1,3.7498586E-2,-1.5807813E-1,-6.0179077E-2,1.50202E-1],"split_indices":[3307,1117,3264,1472,3363,3040,3005,2438,1564,1084,681,447,1027,0,3189,1145,2868,1281,2889,933,642,3117,1293,1311,1380,2960,3139,0,0,3271,685,0,0,0,0,0,0,0,0,0,0,0,0,0,0,0,0,0,0,0,0,0,0,0,0,0,0,0,0],"split_type":[0,0,0,0,0,0,0,0,0,0,0,0,0,0,0,0,0,0,0,0,0,0,0,0,0,0,0,0,0,0,0,0,0,0,0,0,0,0,0,0,0,0,0,0,0,0,0,0,0,0,0,0,0,0,0,0,0,0,0],"sum_hessian":[3.698E3,3.086E3,6.12E2,1.185E3,1.901E3,3.24E2,2.88E2,9.2E2,2.65E2,6.62E2,1.239E3,1E2,2.24E2,2.5E1,2.63E2,6.34E2,2.86E2,1.2E1,2.53E2,1.37E2,5.25E2,9.6E1,1.143E3,5.7E1,4.3E1,8.3E1,1.41E2,2.4E1,1E0,1.55E2,1.08E2,5.37E2,9.7E1,1.53E2,1.33E2,8E0,4E0,2.33E2,2E1,9.5E1,4.2E1,2.81E2,2.44E2,6.1E1,3.5E1,4.43E2,7E2,5.2E1,5E0,5E0,3.8E1,1.6E1,6.7E1,2E1,1.21E2,1.8E1,1.37E2,7.1E1,3.7E1],"tree_param":{"num_deleted":"0","num_feature":"4094","num_nodes":"59","size_leaf_vector":"1"}},{"base_weights":[1.5742905E-2,-7.0734096E-1,2.688253E0,4.7314876E-1,-2.386393E0,7.103298E0,-4.6153066E-1,-4.4680506E-1,5.111273E0,-3.486394E0,-7.430792E-1,1.08269415E1,1.335471E0,-1.4908754E0,1.1814044E1,-2.9992495E0,3.4883136E-1,9.805958E0,4.1197173E-2,-1.5655556E0,-4.466854E0,1.3867857E0,-3.9556105E0,1.3222513E1,2.2844167E0,6.2857027E0,-1.4757347E0,3.179776E0,-2.9788928E0,-2.0540304E-2,4.152983E-1,-4.3560673E-2,-1.3577E-1,3.1774378E-1,2.6390492E-4,4.5242614E-1,8.42233E-2,-9.2559844E-2,1.2220203E-1,-9.246988E-2,3.4884345E-2,-8.4058754E-2,-1.6043313E-1,2.1688323E-1,-1.1909556E-2,-3.5391927E-2,-1.6099115E-1,6.9251835E-2,4.700327E-1,-4.1063864E-2,1.698734E-1,3.569003E-1,9.663651E-2,-1.1299479E-1,4.8727885E-2,-2.3264106E-2,3.2918796E-1,5.463494E-2,-1.14025004E-1],"categories":[],"categories_nodes":[],"categories_segments":[],"categories_sizes":[],"default_left":[0,0,0,0,0,0,0,0,0,0,0,0,0,0,0,0,0,0,0,0,0,0,0,0,0,0,0,0,0,0,0,0,0,0,0,0,0,0,0,0,0,0,0,0,0,0,0,0,0,0,0,0,0,0,0,0,0,0,0],"id":16,"left_children":[1,3,5,7,9,11,13,15,17,19,21,23,25,27,29,31,33,35,37,39,41,43,45,47,49,51,53,55,57,-1,-1,-1,-1,-1,-1,-1,-1,-1,-1,-1,-1,-1,-1,-1,-1,-1,-1,-1,-1,-1,-1,-1,-1,-1,-1,-1,-1,-1,-1],"loss_changes":[7.159101E3,5.7873887E3,1.0993308E4,7.345759E3,2.1601616E3,6.964084E3,6.0210063E3,2.9313755E3,6.7783804E3,1.3075693E3,3.4034849E3,3.8619746E3,1.9689852E3,3.1017212E3,4.3854053E2,6.138823E2,3.5094583E3,4.0134336E3,1.5877218E3,8.555575E2,2.9252832E2,2.7644282E3,5.0363452E2,1.6652344E3,5.748633E2,5.593992E2,5.758935E2,2.9485537E3,8.0877637E2,0E0,0E0,0E0,0E0,0E0,0E0,0E0,0E0,0E0,0E0,0E0,0E0,0E0,0E0,0E0,0E0,0E0,0E0,0E0,0E0,0E0,0E0,0E0,0E0,0E0,0E0,0E0,0E0,0E0,0E0],"parents":[2147483647,0,0,1,1,2,2,3,3,4,4,5,5,6,6,7,7,8,8,9,9,10,10,11,11,12,12,13,13,14,14,15,15,16,16,17,17,18,18,19,19,20,20,21,21,22,22,23,23,24,24,25,25,26,26,27,27,28,28],"right_children":[2,4,6,8,10,12,14,16,18,20,22,24,26,28,30,32,34,36,38,40,42,44,46,48,50,52,54,56,58,-1,-1,-1,-1,-1,-1,-1,-1,-1,-1,-1,-1,-1,-1,-1,-1,-1,-1,-1,-1,-1,-1,-1,-1,-1,-1,-1,-1,-1,-1],"split_conditions":[3.3039837E-3,-6.2792045E-3,6.141927E-3,-7.1507716E-3,-6.3394755E-3,-1.0404187E-2,1.4822781E-1,-1.3691789E-2,-5.035543E-3,-6.711059E-3,-3.603077E-4,2.4027869E-3,-8.376967E-3,2.8749194E-2,-5.293385E-2,-2.2715699E-2,-2.9689787E-2,-1.0306531E-2,-6.5641403E-3,-8.16971E-3,-9.916749E-3,-9.161737E-3,-1.4450597E-2,-7.8185275E-3,1.1128208E-2,-3.602466E-2,-4.2652194E-3,1.53973205E-2,-5.047285E-3,-2.0540304E-2,4.152983E-1,-4.3560673E-2,-1.3577E-1,3.1774378E-1,2.6390492E-4,4.5242614E-1,8.42233E-2,-9.2559844E-2,1.2220203E-1,-9.246988E-2,3.4884345E-2,-8.4058754E-2,-1.6043313E-1,2.1688323E-1,-1.1909556E-2,-3.5391927E-2,-1.6099115E-1,6.9251835E-2,4.700327E-1,-4.1063864E-2,1.698734E-1,3.569003E-1,9.663651E-2,-1.1299479E-1,4.8727885E-2,-2.3264106E-2,3.2918796E-1,5.463494E-2,-1.14025004E-1],"split_indices":[842,819,933,1253,842,1086,1063,3191,1055,1189,920,922,686,951,256,3197,2506,904,624,1278,3382,2878,3288,722,721,3079,925,1361,615,0,0,0,0,0,0,0,0,0,0,0,0,0,0,0,0,0,0,0,0,0,0,0,0,0,0,0,0,0,0],"split_type":[0,0,0,0,0,0,0,0,0,0,0,0,0,0,0,0,0,0,0,0,0,0,0,0,0,0,0,0,0,0,0,0,0,0,0,0,0,0,0,0,0,0,0,0,0,0,0,0,0,0,0,0,0,0,0,0,0,0,0],"sum_hessian":[3.691E3,2.909E3,7.82E2,1.711E3,1.198E3,3.22E2,4.6E2,1.433E3,2.78E2,7.13E2,4.85E2,1.92E2,1.3E2,4.3E2,3E1,3.36E2,1.097E3,1.41E2,1.37E2,2.47E2,4.66E2,2.94E2,1.91E2,1.47E2,4.5E1,4.4E1,8.6E1,1.02E2,3.28E2,2E0,2.8E1,1.42E2,1.94E2,3.2E1,1.065E3,8.7E1,5.4E1,7.8E1,5.9E1,1.67E2,8E1,9.3E1,3.73E2,6.9E1,2.25E2,5.1E1,1.4E2,1.5E1,1.32E2,2.2E1,2.3E1,1.2E1,3.2E1,5.1E1,3.5E1,6.9E1,3.3E1,3E1,2.98E2],"tree_param":{"num_deleted":"0","num_feature":"4094","num_nodes":"59","size_leaf_vector":"1"}},{"base_weights":[1.06937334E-1,-5.393181E-1,2.8754838E0,7.051987E-1,-2.0447695E0,-1.9772335E0,5.605738E0,-3.5522556E-1,4.281805E0,-6.309248E-1,-3.1489437E0,-3.0410721E0,4.388269E0,9.623756E0,8.059161E-1,-7.9066455E-1,5.1052065E0,-9.5392734E-2,8.14422E0,-2.5104659E0,2.0473046E0,8.2449394E-1,-3.5942585E0,-4.725894E0,-1.3910121E0,3.2385972E-1,2.8101206E-1,-3.3814347E-1,1.1746504E1,7.5164113E0,-8.433614E-1,-9.19677E-2,-1.9648883E-3,-5.821328E-2,3.751371E-1,-5.7920087E-2,2.7221546E-1,4.2061225E-1,1.0104313E-1,-2.4520228E-2,-1.2977724E-1,2.5905555E-1,-9.276997E-3,-8.799786E-2,1.5415643E-1,-7.383372E-2,-1.4410958E-1,-2.784765E-2,-1.6200332E-1,-1.02943376E-1,1.036426E-2,-3.0334705E-2,2.7911402E-2,1.2795058E-1,-1.251703E-1,-5.3411666E-3,4.215675E-1,3.4689134E-1,-2.6805539E-2,7.003391E-2,-7.3020265E-2],"categories":[],"categories_nodes":[],"categories_segments":[],"categories_sizes":[],"default_left":[0,0,0,0,0,0,0,0,0,0,0,0,0,0,0,0,0,0,0,0,0,0,0,0,0,0,0,0,0,0,0,0,0,0,0,0,0,0,0,0,0,0,0,0,0,0,0,0,0,0,0,0,0,0,0,0,0,0,0,0,0],"id":17,"left_children":[1,3,5,7,9,11,13,15,17,19,21,23,25,27,29,31,33,35,37,39,41,43,45,47,49,-1,51,53,55,57,59,-1,-1,-1,-1,-1,-1,-1,-1,-1,-1,-1,-1,-1,-1,-1,-1,-1,-1,-1,-1,-1,-1,-1,-1,-1,-1,-1,-1,-1,-1],"loss_changes":[6.6644927E3,5.6697656E3,9.415662E3,6.3022075E3,2.1233262E3,1.8451985E3,8.680942E3,3.0852793E3,6.4280576E3,3.1005105E3,1.377397E3,5.8267773E2,8.7832715E2,5.227207E3,2.4109688E3,1.7577164E3,4.3097803E3,2.6890703E3,4.503118E3,8.978894E2,3.4859624E3,1.2115973E3,6.7129395E2,5.9385986E1,3.757712E2,0E0,2.5921785E1,8.367995E2,2.6605762E3,1.1498264E3,7.639836E2,0E0,0E0,0E0,0E0,0E0,0E0,0E0,0E0,0E0,0E0,0E0,0E0,0E0,0E0,0E0,0E0,0E0,0E0,0E0,0E0,0E0,0E0,0E0,0E0,0E0,0E0,0E0,0E0,0E0,0E0],"parents":[2147483647,0,0,1,1,2,2,3,3,4,4,5,5,6,6,7,7,8,8,9,9,10,10,11,11,12,12,13,13,14,14,15,15,16,16,17,17,18,18,19,19,20,20,21,21,22,22,23,23,24,24,26,26,27,27,28,28,29,29,30,30],"right_children":[2,4,6,8,10,12,14,16,18,20,22,24,26,28,30,32,34,36,38,40,42,44,46,48,50,-1,52,54,56,58,60,-1,-1,-1,-1,-1,-1,-1,-1,-1,-1,-1,-1,-1,-1,-1,-1,-1,-1,-1,-1,-1,-1,-1,-1,-1,-1,-1,-1,-1,-1],"split_conditions":[5.19702E-3,-8.742954E-3,-2.2630835E-2,-1.2523072E-2,-7.818088E-3,-2.0995095E-2,4.5955963E-3,-3.2614798E-3,-1.28665995E-2,-6.3394755E-3,-1.3570221E-2,1.2324588E-2,-2.0079464E-2,-1.9399622E-2,-1.978233E-2,-7.943303E-3,-2.004377E-2,-4.899491E-3,-1.1196505E-2,-4.0166505E-4,-1.06997965E-2,1.9389672E-3,-9.123572E-3,-1.7201627E-2,-5.520217E-2,3.2385972E-1,-6.4642727E-3,1.568266E-2,-2.7904948E-3,-1.6694067E-2,-6.5512247E-3,-9.19677E-2,-1.9648883E-3,-5.821328E-2,3.751371E-1,-5.7920087E-2,2.7221546E-1,4.2061225E-1,1.0104313E-1,-2.4520228E-2,-1.2977724E-1,2.5905555E-1,-9.276997E-3,-8.799786E-2,1.5415643E-1,-7.383372E-2,-1.4410958E-1,-2.784765E-2,-1.6200332E-1,-1.02943376E-1,1.036426E-2,-3.0334705E-2,2.7911402E-2,1.2795058E-1,-1.251703E-1,-5.3411666E-3,4.215675E-1,3.4689134E-1,-2.6805539E-2,7.003391E-2,-7.3020265E-2],"split_indices":[842,817,1009,3300,684,3126,1314,2869,2687,842,939,922,396,1007,1246,2758,2932,2908,2600,811,916,3253,1298,691,3147,0,1304,1038,795,3288,1104,0,0,0,0,0,0,0,0,0,0,0,0,0,0,0,0,0,0,0,0,0,0,0,0,0,0,0,0,0,0],"split_type":[0,0,0,0,0,0,0,0,0,0,0,0,0,0,0,0,0,0,0,0,0,0,0,0,0,0,0,0,0,0,0,0,0,0,0,0,0,0,0,0,0,0,0,0,0,0,0,0,0,0,0,0,0,0,0,0,0,0,0,0,0],"sum_hessian":[3.712E3,3.014E3,6.98E2,1.652E3,1.362E3,2.52E2,4.46E2,1.279E3,3.73E2,6.02E2,7.6E2,2.19E2,3.3E1,2.39E2,2.07E2,1.19E3,8.9E1,1.78E2,1.95E2,3.54E2,2.48E2,7.6E1,6.84E2,1.02E2,1.17E2,1E1,2.3E1,4.3E1,1.96E2,3.6E1,1.71E2,3.12E2,8.78E2,4.5E1,4.4E1,1.53E2,2.5E1,9.6E1,9.9E1,1.64E2,1.9E2,6.6E1,1.82E2,4.1E1,3.5E1,2.64E2,4.2E2,7E0,9.5E1,5.5E1,6.2E1,6E0,1.7E1,1.9E1,2.4E1,1.7E1,1.79E2,2.5E1,1.1E1,5.3E1,1.18E2],"tree_param":{"num_deleted":"0","num_feature":"4094","num_nodes":"61","size_leaf_vector":"1"}},{"base_weights":[7.56802E-2,-1.1349494E0,1.4557444E0,-2.0302591E0,1.1457645E0,6.897388E0,5.61922E-1,-4.2685464E-1,-2.9440832E0,1.013781E1,2.3808938E-1,-1.4495771E0,1.02863655E1,-7.813045E-1,4.305543E0,-1.2765359E0,3.060041E0,-2.1178756E0,-4.1363025E0,1.6779597E0,4.382845E-1,5.512162E0,-1.5051917E0,-3.3832748E0,1.9493983E0,1.2336805E1,1.3186282E0,8.06965E-1,-2.2518444E0,8.606663E0,-5.0888526E-1,-4.2986986E-3,-1.2285819E-1,1.6720971E-1,-3.5529997E-2,-1.1002744E-1,-3.7432782E-2,-7.144108E-2,-1.5359323E-1,-3.9047927E-2,1.0755643E-1,6.279209E-2,4.1600427E-1,-9.177507E-2,5.529738E-2,-1.20424375E-1,-1.0582712E-2,9.032863E-2,8.591169E-3,-4.4020522E-2,4.381868E-1,-7.2458796E-2,1.2516002E-1,3.113379E-1,1.0023931E-2,-9.408735E-2,3.9914384E-2,3.9467183E-1,-1.9233828E-2,1.4839788E-1,-4.874892E-2],"categories":[],"categories_nodes":[],"categories_segments":[],"categories_sizes":[],"default_left":[0,0,0,0,0,0,0,0,0,0,0,0,0,0,0,0,0,0,0,0,0,0,0,0,0,0,0,0,0,0,0,0,0,0,0,0,0,0,0,0,0,0,0,0,0,0,0,0,0,0,0,0,0,0,0,0,0,0,0,0,0],"id":18,"left_children":[1,3,5,7,9,11,13,15,17,19,21,23,25,27,29,31,33,35,37,39,-1,41,43,45,47,49,51,53,55,57,59,-1,-1,-1,-1,-1,-1,-1,-1,-1,-1,-1,-1,-1,-1,-1,-1,-1,-1,-1,-1,-1,-1,-1,-1,-1,-1,-1,-1,-1,-1],"loss_changes":[6.146195E3,4.0180332E3,8.333745E3,2.0571553E3,4.5286475E3,6.94542E3,7.4849995E3,1.5672463E3,8.2306445E2,1.228956E3,4.7728467E3,5.442901E2,3.0669922E3,2.5767844E3,8.1660254E3,1.191272E3,9.1312665E2,6.296533E2,3.1242627E2,1.2721326E2,0E0,3.15473E3,1.641384E3,3.6252502E1,3.8213745E1,2.0580352E3,4.088151E2,2.2994575E3,1.2420991E3,6.576205E3,9.8829736E2,0E0,0E0,0E0,0E0,0E0,0E0,0E0,0E0,0E0,0E0,0E0,0E0,0E0,0E0,0E0,0E0,0E0,0E0,0E0,0E0,0E0,0E0,0E0,0E0,0E0,0E0,0E0,0E0,0E0,0E0],"parents":[2147483647,0,0,1,1,2,2,3,3,4,4,5,5,6,6,7,7,8,8,9,9,10,10,11,11,12,12,13,13,14,14,15,15,16,16,17,17,18,18,19,19,21,21,22,22,23,23,24,24,25,25,26,26,27,27,28,28,29,29,30,30],"right_children":[2,4,6,8,10,12,14,16,18,20,22,24,26,28,30,32,34,36,38,40,-1,42,44,46,48,50,52,54,56,58,60,-1,-1,-1,-1,-1,-1,-1,-1,-1,-1,-1,-1,-1,-1,-1,-1,-1,-1,-1,-1,-1,-1,-1,-1,-1,-1,-1,-1,-1,-1],"split_conditions":[-8.8451635E-3,-4.5269527E-3,-1.6054738E-2,-1.7084893E-2,-1.3169035E-2,-4.377571E-3,-5.573749E-4,-2.81086E-3,-9.627355E-3,-1.1677216E-2,-8.911237E-3,-1.0679705E-3,-1.2861464E-4,-1.1911701E-2,-1.0978037E-2,-1.2233761E-2,-1.5784716E-3,-1.3927076E-2,-2.4859337E-2,-6.088604E-3,4.382845E-1,-5.166995E-3,-6.958002E-3,6.4473334E-3,-5.3780638E-2,-2.7605614E-2,-9.1875475E-3,-1.3641138E-2,5.99828E-3,-1.4046965E-3,-8.056549E-3,-4.2986986E-3,-1.2285819E-1,1.6720971E-1,-3.5529997E-2,-1.1002744E-1,-3.7432782E-2,-7.144108E-2,-1.5359323E-1,-3.9047927E-2,1.0755643E-1,6.279209E-2,4.1600427E-1,-9.177507E-2,5.529738E-2,-1.20424375E-1,-1.0582712E-2,9.032863E-2,8.591169E-3,-4.4020522E-2,4.381868E-1,-7.2458796E-2,1.2516002E-1,3.113379E-1,1.0023931E-2,-9.408735E-2,3.9914384E-2,3.9467183E-1,-1.9233828E-2,1.4839788E-1,-4.874892E-2],"split_indices":[1274,3341,488,2898,3013,1061,2889,2525,3519,1071,3363,1410,553,2673,3133,3402,2733,2499,1251,1297,0,842,2736,1295,0,2847,380,2977,690,2958,3441,0,0,0,0,0,0,0,0,0,0,0,0,0,0,0,0,0,0,0,0,0,0,0,0,0,0,0,0,0,0],"split_type":[0,0,0,0,0,0,0,0,0,0,0,0,0,0,0,0,0,0,0,0,0,0,0,0,0,0,0,0,0,0,0,0,0,0,0,0,0,0,0,0,0,0,0,0,0,0,0,0,0,0,0,0,0,0,0,0,0,0,0,0,0],"sum_hessian":[3.665E3,1.953E3,1.712E3,1.403E3,5.5E2,2.35E2,1.477E3,5.13E2,8.9E2,4.4E1,5.06E2,6.9E1,1.66E2,1.091E3,3.86E2,4.16E2,9.7E1,5.37E2,3.53E2,1.5E1,2.9E1,1.22E2,3.84E2,4.4E1,2.5E1,1.33E2,3.3E1,5.26E2,5.65E2,2.01E2,1.85E2,2.89E2,1.27E2,6.4E1,3.3E1,2.3E2,3.07E2,8.4E1,2.69E2,6E0,9E0,8.7E1,3.5E1,2.74E2,1.1E2,3.9E1,5E0,1.4E1,1.1E1,9E0,1.24E2,1.4E1,1.9E1,2.2E1,5.04E2,4.81E2,8.4E1,1.45E2,5.6E1,2.6E1,1.59E2],"tree_param":{"num_deleted":"0","num_feature":"4094","num_nodes":"61","size_leaf_vector":"1"}},{"base_weights":[-8.8307574E-2,-1.7546716E0,8.362795E-1,-2.0237718E0,4.739951E0,-2.9184884E-1,3.2741268E0,-1.3804598E0,-4.0066924E0,1.0273296E1,-1.8511258E0,-2.3611631E0,7.0550394E-1,8.739668E0,1.0832663E0,-1.938031E0,1.1131822E0,2.9854608E0,-4.212472E0,3.556453E-1,1.608867E-2,-9.40205E-2,3.591928E-2,-1.3516124E0,-5.0466495E0,5.46001E0,1.2578686E-1,1.2582414E1,2.500674E0,-2.9592972E0,4.45834E0,-1.0344965E-1,-3.8603194E-2,1.3447502E-1,-4.511692E-2,-2.8314656E-2,1.56039E-1,-3.3868432E-2,-1.5101095E-1,-7.458875E-2,1.0522485E-1,-4.0507905E-2,-1.7701258E-1,3.500476E-2,4.0969613E-1,2.0697697E-1,-1.10338535E-2,-6.505441E-2,4.3940663E-1,3.3701953E-1,1.0934564E-3,1.4301965E-1,-1.1744596E-1,3.57158E-2,3.1458884E-1],"categories":[],"categories_nodes":[],"categories_segments":[],"categories_sizes":[],"default_left":[0,0,0,0,0,0,0,0,0,0,0,0,0,0,0,0,0,0,0,0,0,0,0,0,0,0,0,0,0,0,0,0,0,0,0,0,0,0,0,0,0,0,0,0,0,0,0,0,0,0,0,0,0,0,0],"id":19,"left_children":[1,3,5,7,9,11,13,15,17,19,21,23,25,27,29,31,33,35,37,-1,-1,-1,-1,39,41,43,45,47,49,51,53,-1,-1,-1,-1,-1,-1,-1,-1,-1,-1,-1,-1,-1,-1,-1,-1,-1,-1,-1,-1,-1,-1,-1,-1],"loss_changes":[5.7336484E3,2.3868982E3,6.590286E3,1.5945469E3,2.1331338E3,3.402149E3,9.0099375E3,1.3731299E3,5.3258936E2,1.3272437E2,1.13769226E2,1.4058552E3,3.0654558E3,4.9591113E3,7.580043E3,7.1496606E2,1.3960016E3,1.1597258E2,3.4191357E2,0E0,0E0,0E0,0E0,1.7234009E3,1.4364893E2,3.6370952E3,2.8683955E3,1.7246484E3,1.7392007E3,1.2559216E3,5.142339E3,0E0,0E0,0E0,0E0,0E0,0E0,0E0,0E0,0E0,0E0,0E0,0E0,0E0,0E0,0E0,0E0,0E0,0E0,0E0,0E0,0E0,0E0,0E0,0E0],"parents":[2147483647,0,0,1,1,2,2,3,3,4,4,5,5,6,6,7,7,8,8,9,9,10,10,11,11,12,12,13,13,14,14,15,15,16,16,17,17,18,18,23,23,24,24,25,25,26,26,27,27,28,28,29,29,30,30],"right_children":[2,4,6,8,10,12,14,16,18,20,22,24,26,28,30,32,34,36,38,-1,-1,-1,-1,40,42,44,46,48,50,52,54,-1,-1,-1,-1,-1,-1,-1,-1,-1,-1,-1,-1,-1,-1,-1,-1,-1,-1,-1,-1,-1,-1,-1,-1],"split_conditions":[2.6519524E-3,1.7941384E-2,-9.691867E-3,-5.0355587E-3,-1.1474884E-2,-1.5936287E-2,-8.766593E-3,-5.006733E-3,-1.7121602E-2,-3.7350215E-2,-5.435839E-3,-4.8067905E-3,-9.363567E-3,-3.6267887E-3,-5.822118E-3,-1.0917408E-2,6.018262E-3,-2.1068294E-2,-2.7828783E-2,3.556453E-1,1.608867E-2,-9.40205E-2,3.591928E-2,-8.9357775E-3,-9.13129E-3,-6.9376775E-3,-8.655679E-3,-3.249655E-2,-4.294376E-3,-9.711113E-3,-3.2982332E-4,-1.0344965E-1,-3.8603194E-2,1.3447502E-1,-4.511692E-2,-2.8314656E-2,1.56039E-1,-3.3868432E-2,-1.5101095E-1,-7.458875E-2,1.0522485E-1,-4.0507905E-2,-1.7701258E-1,3.500476E-2,4.0969613E-1,2.0697697E-1,-1.10338535E-2,-6.505441E-2,4.3940663E-1,3.3701953E-1,1.0934564E-3,1.4301965E-1,-1.1744596E-1,3.57158E-2,3.1458884E-1],"split_indices":[1117,3313,2909,1472,2986,3330,660,1304,1564,0,772,2890,716,3376,685,681,940,257,918,0,0,0,0,3293,1592,2889,1143,1183,939,344,698,0,0,0,0,0,0,0,0,0,0,0,0,0,0,0,0,0,0,0,0,0,0,0,0],"split_type":[0,0,0,0,0,0,0,0,0,0,0,0,0,0,0,0,0,0,0,0,0,0,0,0,0,0,0,0,0,0,0,0,0,0,0,0,0,0,0,0,0,0,0,0,0,0,0,0,0,0,0,0,0,0,0],"sum_hessian":[3.708E3,1.321E3,2.387E3,1.273E3,4.8E1,1.636E3,7.51E2,9.7E2,3.03E2,2.4E1,2.4E1,5.29E2,1.107E3,2.09E2,5.42E2,7.94E2,1.76E2,6E0,2.97E2,2.2E1,2E0,1.8E1,6E0,3.92E2,1.37E2,1.14E2,9.93E2,1.25E2,8.4E1,2.47E2,2.95E2,2.98E2,4.96E2,7.8E1,9.8E1,3E0,3E0,3.5E1,2.62E2,3.29E2,6.3E1,1.4E1,1.23E2,7.5E1,3.9E1,6.3E1,9.3E2,6E0,1.19E2,1.5E1,6.9E1,1.6E1,2.31E2,1.83E2,1.12E2],"tree_param":{"num_deleted":"0","num_feature":"4094","num_nodes":"55","size_leaf_vector":"1"}},{"base_weights":[1.0925249E-2,-9.9259275E-1,1.4727408E0,-2.080179E0,3.6063513E-1,3.0272287E-1,5.8296337E0,-1.029525E0,-3.2029452E0,8.181582E0,-1.2530343E-1,5.422758E0,-7.1580714E-1,1.0037417E1,-1.573022E0,-2.8942456E0,1.6412166E-1,1.301683E0,-3.461261E0,1.1721253E1,-1.3294545E0,-6.1475396E-1,6.628502E0,-4.2289752E-1,1.04343E1,1.3275534E0,-1.9585326E0,-4.656714E-1,1.1514884E1,2.5852773E-1,-2.713362E0,-1.07264094E-1,3.999957E-2,1.3960177E-1,-4.413075E-2,1.6718635E-1,-1.8746682E-2,-1.2829086E-1,-5.68503E-2,4.1392997E-1,9.5666565E-2,-7.4396886E-2,4.5494057E-2,4.7021676E-3,-1.1137978E-1,3.3849E-1,-4.9924087E-2,-9.423299E-2,1.109461E-1,1.5101021E-2,4.1586202E-1,7.560571E-3,1.4865167E-1,1.5810493E-2,-1.0190368E-1,3.6816765E-2,-5.9474505E-2,-3.671827E-3,4.0789524E-1,-1.0937318E-1,1.8938815E-2],"categories":[],"categories_nodes":[],"categories_segments":[],"categories_sizes":[],"default_left":[0,0,0,0,0,0,0,0,0,0,0,0,0,0,0,0,0,0,0,0,0,0,0,0,0,0,0,0,0,0,0,0,0,0,0,0,0,0,0,0,0,0,0,0,0,0,0,0,0,0,0,0,0,0,0,0,0,0,0,0,0],"id":20,"left_children":[1,3,5,7,9,11,13,15,17,19,21,23,25,27,29,31,33,35,37,39,41,43,45,47,49,51,53,55,57,-1,59,-1,-1,-1,-1,-1,-1,-1,-1,-1,-1,-1,-1,-1,-1,-1,-1,-1,-1,-1,-1,-1,-1,-1,-1,-1,-1,-1,-1,-1,-1],"loss_changes":[5.4523374E3,3.2487576E3,7.7000273E3,1.4198389E3,3.7615603E3,6.2841006E3,1.0073162E4,1.432014E3,7.1514453E2,2.0564902E3,3.1251396E3,5.88647E3,2.5747678E3,3.2165078E3,1.4606211E3,4.1252783E2,2.4932136E3,2.819876E2,3.8434473E2,8.203662E1,7.734308E1,1.8561768E3,2.0255237E3,9.872845E2,2.3634844E3,1.3445071E3,1.7683677E3,8.2144905E1,1.9134863E3,0E0,2.449632E2,0E0,0E0,0E0,0E0,0E0,0E0,0E0,0E0,0E0,0E0,0E0,0E0,0E0,0E0,0E0,0E0,0E0,0E0,0E0,0E0,0E0,0E0,0E0,0E0,0E0,0E0,0E0,0E0,0E0,0E0],"parents":[2147483647,0,0,1,1,2,2,3,3,4,4,5,5,6,6,7,7,8,8,9,9,10,10,11,11,12,12,13,13,14,14,15,15,16,16,17,17,18,18,19,19,20,20,21,21,22,22,23,23,24,24,25,25,26,26,27,27,28,28,30,30],"right_children":[2,4,6,8,10,12,14,16,18,20,22,24,26,28,30,32,34,36,38,40,42,44,46,48,50,52,54,56,58,-1,60,-1,-1,-1,-1,-1,-1,-1,-1,-1,-1,-1,-1,-1,-1,-1,-1,-1,-1,-1,-1,-1,-1,-1,-1,-1,-1,-1,-1,-1,-1],"split_conditions":[-6.762939E-3,-6.6229864E-3,-9.022133E-3,5.0375345E-3,-1.8000146E-2,-3.364657E-2,-2.1950426E-3,-1.2963414E-2,-7.604479E-3,-1.4425466E-2,4.9651675E-2,-9.680428E-3,-1.3723646E-2,-2.2920221E-2,-2.1452652E-2,1.2471215E-4,-4.9741194E-3,-2.4917519E-2,1.1279063E-2,-1.7230658E-2,-1.50477E-2,3.9085615E-3,2.2730948E-3,-4.3601086E-3,-7.83421E-3,-1.6239947E-2,-1.5790345E-2,-2.080726E-2,-4.5108628E-3,2.5852773E-1,3.5348356E-2,-1.07264094E-1,3.999957E-2,1.3960177E-1,-4.413075E-2,1.6718635E-1,-1.8746682E-2,-1.2829086E-1,-5.68503E-2,4.1392997E-1,9.5666565E-2,-7.4396886E-2,4.5494057E-2,4.7021676E-3,-1.1137978E-1,3.3849E-1,-4.9924087E-2,-9.423299E-2,1.109461E-1,1.5101021E-2,4.1586202E-1,7.560571E-3,1.4865167E-1,1.5810493E-2,-1.0190368E-1,3.6816765E-2,-5.9474505E-2,-3.671827E-3,4.0789524E-1,-1.0937318E-1,1.8938815E-2],"split_indices":[1274,703,1049,930,3013,3127,1219,2754,969,612,3079,2908,2682,1624,3097,679,936,1025,1523,1026,1039,1017,3631,3269,692,854,895,1141,943,0,3298,0,0,0,0,0,0,0,0,0,0,0,0,0,0,0,0,0,0,0,0,0,0,0,0,0,0,0,0,0,0],"split_type":[0,0,0,0,0,0,0,0,0,0,0,0,0,0,0,0,0,0,0,0,0,0,0,0,0,0,0,0,0,0,0,0,0,0,0,0,0,0,0,0,0,0,0,0,0,0,0,0,0,0,0,0,0,0,0,0,0,0,0,0,0],"sum_hessian":[3.703E3,2.197E3,1.506E3,1.216E3,9.81E2,1.193E3,3.13E2,6.35E2,5.81E2,5.1E1,9.3E2,1.93E2,1E3,1.98E2,1.15E2,2.44E2,3.91E2,3E1,5.51E2,3.6E1,1.5E1,8.73E2,5.7E1,9.2E1,1.01E2,3.78E2,6.22E2,2.5E1,1.73E2,8E0,1.07E2,2.25E2,1.9E1,1.02E2,2.89E2,6E0,2.4E1,4.31E2,1.2E2,3E1,6E0,1.2E1,3E0,6.91E2,1.82E2,3.8E1,1.9E1,5.7E1,3.5E1,2E1,8.1E1,2.87E2,9.1E1,2E2,4.22E2,1.2E1,1.3E1,1.3E1,1.6E2,9E1,1.7E1],"tree_param":{"num_deleted":"0","num_feature":"4094","num_nodes":"61","size_leaf_vector":"1"}},{"base_weights":[4.5539703E-2,-1.0490029E0,1.5867332E0,-1.339192E0,6.8109694E0,3.3201948E-1,5.8626547E0,-5.3741704E-3,-2.7292924E0,-1.9831364E0,1.1225916E1,5.9852753E0,-1.9006293E-1,9.667595E0,2.288115E0,-3.0184133E0,6.4319074E-1,-1.124317E0,-3.512328E0,-8.967211E-2,2.8186597E-2,3.7809148E-1,-1.6194543E-2,-5.2343166E-1,8.660893E0,1.525988E0,-1.7381365E0,-1.1642721E0,1.1379463E1,9.610129E0,-1.0105817E-2,-1.18919976E-1,7.382444E-2,1.7219704E-1,-1.0259676E-2,-8.938634E-2,9.169972E-3,-3.0080102E-2,-1.30603E-1,-9.155047E-2,7.4352875E-2,3.8343468E-1,1.18647E-1,1.452791E-2,1.9121508E-1,8.222485E-2,-7.7606544E-2,6.431144E-2,-9.125343E-2,-5.496372E-2,3.9824778E-1,-4.0022172E-2,3.7741923E-1,1.1815907E-1,-7.555127E-2],"categories":[],"categories_nodes":[],"categories_segments":[],"categories_sizes":[],"default_left":[0,0,0,0,0,0,0,0,0,0,0,0,0,0,0,0,0,0,0,0,0,0,0,0,0,0,0,0,0,0,0,0,0,0,0,0,0,0,0,0,0,0,0,0,0,0,0,0,0,0,0,0,0,0,0],"id":21,"left_children":[1,3,5,7,9,11,13,15,17,19,21,23,25,27,29,31,33,35,37,-1,-1,-1,-1,39,41,43,45,47,49,51,53,-1,-1,-1,-1,-1,-1,-1,-1,-1,-1,-1,-1,-1,-1,-1,-1,-1,-1,-1,-1,-1,-1,-1,-1],"loss_changes":[6.2190957E3,4.9802153E3,8.199915E3,3.8655854E3,3.1777598E3,3.5227256E3,4.5655713E3,2.106074E3,1.2557852E3,8.400244E1,2.197832E2,1.7883062E3,2.9322651E3,3.1674688E3,3.1624783E3,6.63557E2,3.9122292E3,7.7911194E2,8.010957E2,0E0,0E0,0E0,0E0,2.7027267E2,8.044077E2,2.422234E3,1.5807482E3,1.8332944E2,1.552207E3,1.01387646E3,1.2967777E3,0E0,0E0,0E0,0E0,0E0,0E0,0E0,0E0,0E0,0E0,0E0,0E0,0E0,0E0,0E0,0E0,0E0,0E0,0E0,0E0,0E0,0E0,0E0,0E0],"parents":[2147483647,0,0,1,1,2,2,3,3,4,4,5,5,6,6,7,7,8,8,9,9,10,10,11,11,12,12,13,13,14,14,15,15,16,16,17,17,18,18,23,23,24,24,25,25,26,26,27,27,28,28,29,29,30,30],"right_children":[2,4,6,8,10,12,14,16,18,20,22,24,26,28,30,32,34,36,38,-1,-1,-1,-1,40,42,44,46,48,50,52,54,-1,-1,-1,-1,-1,-1,-1,-1,-1,-1,-1,-1,-1,-1,-1,-1,-1,-1,-1,-1,-1,-1,-1,-1],"split_conditions":[-9.657599E-3,5.14585E-2,3.8881325E-3,-1.1770037E-2,-2.9225364E-2,-1.6421866E-2,-1.4939203E-2,-1.5337639E-2,-1.9665157E-2,2.200249E-2,-5.901755E-3,-6.034966E-3,-8.052608E-3,-1.399215E-2,-1.1641918E-2,1.7590256E-2,-1.3410084E-2,-4.1180053E-3,-1.2604816E-2,-8.967211E-2,2.8186597E-2,3.7809148E-1,-1.6194543E-2,-8.582286E-3,-1.5247375E-4,-7.505588E-3,-1.1857768E-2,-1.3663494E-2,-4.4209447E-2,-2.0107092E-2,-4.0462688E-3,-1.18919976E-1,7.382444E-2,1.7219704E-1,-1.0259676E-2,-8.938634E-2,9.169972E-3,-3.0080102E-2,-1.30603E-1,-9.155047E-2,7.4352875E-2,3.8343468E-1,1.18647E-1,1.452791E-2,1.9121508E-1,8.222485E-2,-7.7606544E-2,6.431144E-2,-9.125343E-2,-5.496372E-2,3.9824778E-1,-4.0022172E-2,3.7741923E-1,1.1815907E-1,-7.555127E-2],"split_indices":[1273,3118,842,872,3901,2986,3133,707,3080,770,3335,1027,344,3321,560,1090,1305,703,2956,0,0,0,0,627,793,632,3012,838,698,770,920,0,0,0,0,0,0,0,0,0,0,0,0,0,0,0,0,0,0,0,0,0,0,0,0],"split_type":[0,0,0,0,0,0,0,0,0,0,0,0,0,0,0,0,0,0,0,0,0,0,0,0,0,0,0,0,0,0,0,0,0,0,0,0,0,0,0,0,0,0,0,0,0,0,0,0,0,0,0,0,0,0,0],"sum_hessian":[3.673E3,2.149E3,1.524E3,2.078E3,7.1E1,1.184E3,3.4E2,1.064E3,1.014E3,2.5E1,4.6E1,9.4E1,1.09E3,1.59E2,1.81E2,1.84E2,8.8E2,3.38E2,6.76E2,2E1,5E0,4.5E1,1E0,2.9E1,6.5E1,5.17E2,5.73E2,2.2E1,1.37E2,3.8E1,1.43E2,1.67E2,1.7E1,1.46E2,7.34E2,1.55E2,1.83E2,1.06E2,5.7E2,1.6E1,1.3E1,3.5E1,3E1,4.19E2,9.8E1,7.1E1,5.02E2,7E0,1.5E1,7E0,1.3E2,6E0,3.2E1,5.4E1,8.9E1],"tree_param":{"num_deleted":"0","num_feature":"4094","num_nodes":"55","size_leaf_vector":"1"}},{"base_weights":[1.1026419E-1,-8.9789075E-1,1.5701779E0,-1.185249E0,6.5740857E0,-4.1828775E-1,3.7022166E0,4.766722E-3,-2.4499495E0,-1.406846E0,1.0460063E1,7.398285E0,-8.725814E-1,6.709889E0,3.0242708E-1,-1.029098E0,2.6757612E0,-2.3228396E-1,-3.22823E0,-8.4758E-2,2.1642523E0,1.1305931E1,-4.4331778E-2,-1.3871666E0,1.0272468E1,4.9327838E-1,-2.4231818E0,2.3159983E0,1.0168528E1,-1.7789387E0,4.3801675E0,-4.5739997E-2,1.7245422E-1,1.988398E-2,2.6982132E-1,5.0063297E-2,-9.11913E-2,-6.846475E-2,-1.4053413E-1,8.403143E-2,9.871629E-3,1.2777342E-2,3.7636155E-1,-6.29122E-2,1.8854288E-2,2.1720847E-2,3.4226555E-1,-6.506594E-2,3.3393178E-2,-2.9308012E-2,-1.1852627E-1,2.3771966E-1,-6.5213665E-2,1.12872064E-1,3.9475042E-1,7.882278E-2,-9.0055086E-2,6.652282E-2,3.1184474E-1],"categories":[],"categories_nodes":[],"categories_segments":[],"categories_sizes":[],"default_left":[0,0,0,0,0,0,0,0,0,0,0,0,0,0,0,0,0,0,0,0,0,0,0,0,0,0,0,0,0,0,0,0,0,0,0,0,0,0,0,0,0,0,0,0,0,0,0,0,0,0,0,0,0,0,0,0,0,0,0],"id":22,"left_children":[1,3,5,7,9,11,13,15,17,19,21,23,25,27,29,31,33,35,37,-1,39,41,-1,43,45,47,49,51,53,55,57,-1,-1,-1,-1,-1,-1,-1,-1,-1,-1,-1,-1,-1,-1,-1,-1,-1,-1,-1,-1,-1,-1,-1,-1,-1,-1,-1,-1],"loss_changes":[5.430274E3,4.7406846E3,6.399133E3,3.1724897E3,2.641293E3,2.8352307E3,7.4290566E3,3.036953E3,1.7585845E3,1.765505E2,6.636465E2,1.2066089E3,1.5943257E3,5.7020273E3,3.0148774E3,1.8647078E3,3.4873682E3,1.2499375E3,8.476875E2,0E0,3.4591522E0,6.084912E1,0E0,2.5126034E1,2.4436035E0,5.3770404E2,6.172014E2,3.8901707E3,2.3871055E3,9.9623364E2,1.3119299E3,0E0,0E0,0E0,0E0,0E0,0E0,0E0,0E0,0E0,0E0,0E0,0E0,0E0,0E0,0E0,0E0,0E0,0E0,0E0,0E0,0E0,0E0,0E0,0E0,0E0,0E0,0E0,0E0],"parents":[2147483647,0,0,1,1,2,2,3,3,4,4,5,5,6,6,7,7,8,8,9,9,10,10,11,11,12,12,13,13,14,14,15,15,16,16,17,17,18,18,20,20,21,21,23,23,24,24,25,25,26,26,27,27,28,28,29,29,30,30],"right_children":[2,4,6,8,10,12,14,16,18,20,22,24,26,28,30,32,34,36,38,-1,40,42,-1,44,46,48,50,52,54,56,58,-1,-1,-1,-1,-1,-1,-1,-1,-1,-1,-1,-1,-1,-1,-1,-1,-1,-1,-1,-1,-1,-1,-1,-1,-1,-1,-1,-1],"split_conditions":[-1.23188E-2,4.446973E-2,-1.1949152E-2,-1.3254063E-2,-2.9225364E-2,-1.8121287E-2,-1.5376092E-4,-3.0912708E-3,-1.6151052E-2,2.200249E-2,-1.051257E-2,-2.038823E-2,-1.1030868E-2,-9.540814E-3,5.601935E-4,2.6235107E-2,-8.1171375E-3,-1.0430123E-2,-8.214135E-4,-8.4758E-2,-1.4240422E-2,-1.1856291E-1,-4.4331778E-2,-1.707915E-2,-1.2649407E0,-1.45306215E-2,-1.5791683E-2,-1.801743E-2,-2.0376926E-2,-8.917635E-3,1.0219988E-2,-4.5739997E-2,1.7245422E-1,1.988398E-2,2.6982132E-1,5.0063297E-2,-9.11913E-2,-6.846475E-2,-1.4053413E-1,8.403143E-2,9.871629E-3,1.2777342E-2,3.7636155E-1,-6.29122E-2,1.8854288E-2,2.1720847E-2,3.4226555E-1,-6.506594E-2,3.3393178E-2,-2.9308012E-2,-1.1852627E-1,2.3771966E-1,-6.5213665E-2,1.12872064E-1,3.9475042E-1,7.882278E-2,-9.0055086E-2,6.652282E-2,3.1184474E-1],"split_indices":[3320,3118,2679,2897,3901,939,3364,1298,2901,770,1552,2825,2391,2739,2519,1053,3574,2890,3447,0,0,3081,0,0,0,3201,3606,2913,3232,541,629,0,0,0,0,0,0,0,0,0,0,0,0,0,0,0,0,0,0,0,0,0,0,0,0,0,0,0,0],"split_type":[0,0,0,0,0,0,0,0,0,0,0,0,0,0,0,0,0,0,0,0,0,0,0,0,0,0,0,0,0,0,0,0,0,0,0,0,0,0,0,0,0,0,0,0,0,0,0,0,0,0,0,0,0,0,0,0,0,0,0],"sum_hessian":[3.676E3,2.176E3,1.5E3,2.101E3,7.5E1,7.79E2,7.21E2,1.086E3,1.015E3,2.6E1,4.9E1,3.7E1,7.42E2,3.79E2,3.42E2,7.86E2,3E2,2.66E2,7.49E2,2.1E1,5E0,4.6E1,3E0,1E1,2.7E1,3.97E2,3.45E2,1.72E2,2.07E2,2.29E2,1.13E2,7.48E2,3.8E1,2.24E2,7.6E1,1.59E2,1.07E2,3.69E2,3.8E2,2E0,3E0,1E0,4.5E1,8E0,2E0,1E0,2.6E1,6.6E1,3.31E2,1.56E2,1.89E2,7.8E1,9.4E1,4.9E1,1.58E2,4.1E1,1.88E2,8.4E1,2.9E1],"tree_param":{"num_deleted":"0","num_feature":"4094","num_nodes":"59","size_leaf_vector":"1"}},{"base_weights":[8.949126E-2,-8.216609E-1,1.5799016E0,-8.2129814E-2,-2.4499202E0,6.7209086E0,7.04707E-1,-1.1266834E0,2.4369256E0,-3.026806E-1,-3.2738569E0,2.6095515E-1,1.0566059E1,-9.338997E-1,3.7385123E0,-2.5015655E0,6.2734745E-2,1.0082843E1,1.5698569E0,3.6132083E0,-2.32725E0,-1.1328164E0,-4.0495114E0,-3.0275092E0,2.4787483E0,-1.0309995E0,1.1392273E1,-3.7872243E0,5.6143485E-2,7.943543E0,-2.2903128E-1,-8.605337E-2,5.5399228E-2,1.7298733E-1,-9.936095E-3,-5.5996075E-2,3.6624616E-1,2.2072332E-2,3.0278355E-1,-2.8255502E-2,1.394024E-1,-7.579433E-3,-1.3069244E-1,-6.8222836E-2,1.0797889E-1,4.125733E-2,-1.4034015E-1,-1.0657697E-1,-5.506677E-3,-1.6736586E-2,1.3378684E-1,-4.055099E-2,2.1095737E-3,3.8482082E-1,-1.5686568E-2,1.3333726E-2,-1.3641079E-1,1.6812767E-1,-2.0178616E-2,3.1888306E-1,-5.9472688E-2,1.374835E-1,-6.9924645E-2],"categories":[],"categories_nodes":[],"categories_segments":[],"categories_sizes":[],"default_left":[0,0,0,0,0,0,0,0,0,0,0,0,0,0,0,0,0,0,0,0,0,0,0,0,0,0,0,0,0,0,0,0,0,0,0,0,0,0,0,0,0,0,0,0,0,0,0,0,0,0,0,0,0,0,0,0,0,0,0,0,0,0,0],"id":23,"left_children":[1,3,5,7,9,11,13,15,17,19,21,23,25,27,29,31,33,35,37,39,41,43,45,47,49,51,53,55,57,59,61,-1,-1,-1,-1,-1,-1,-1,-1,-1,-1,-1,-1,-1,-1,-1,-1,-1,-1,-1,-1,-1,-1,-1,-1,-1,-1,-1,-1,-1,-1,-1,-1],"loss_changes":[5.086332E3,2.79813E3,6.360493E3,4.244499E3,1.2774126E3,5.095296E3,6.098367E3,1.8651619E3,3.025943E3,1.7140815E3,8.384092E2,6.635873E2,1.3159941E3,2.258274E3,7.1847427E3,2.9583887E2,1.1865804E3,7.247046E2,2.9307656E3,2.3453656E2,4.856223E2,6.695652E2,4.93958E2,1.9351654E1,2.714857E2,3.8792458E0,5.121709E2,3.2942627E2,2.060077E3,3.728542E3,1.9750499E3,0E0,0E0,0E0,0E0,0E0,0E0,0E0,0E0,0E0,0E0,0E0,0E0,0E0,0E0,0E0,0E0,0E0,0E0,0E0,0E0,0E0,0E0,0E0,0E0,0E0,0E0,0E0,0E0,0E0,0E0,0E0,0E0],"parents":[2147483647,0,0,1,1,2,2,3,3,4,4,5,5,6,6,7,7,8,8,9,9,10,10,11,11,12,12,13,13,14,14,15,15,16,16,17,17,18,18,19,19,20,20,21,21,22,22,23,23,24,24,25,25,26,26,27,27,28,28,29,29,30,30],"right_children":[2,4,6,8,10,12,14,16,18,20,22,24,26,28,30,32,34,36,38,40,42,44,46,48,50,52,54,56,58,60,62,-1,-1,-1,-1,-1,-1,-1,-1,-1,-1,-1,-1,-1,-1,-1,-1,-1,-1,-1,-1,-1,-1,-1,-1,-1,-1,-1,-1,-1,-1,-1,-1],"split_conditions":[-5.7857903E-3,3.056303E-3,-1.6298892E-2,-5.535827E-3,-1.6288385E-2,-1.9473849E-2,-4.749561E-3,-1.40921725E-2,-2.0070128E-2,-1.4119945E-2,-9.884751E-3,-1.935647E-2,-3.520065E-2,-1.439075E-2,-1.1093089E-2,-9.646906E-3,-1.3475566E-2,-4.3868087E-2,5.8264527E-2,-9.6924715E-3,8.377889E-3,-9.096969E-3,-9.473321E-4,3.2128546E-2,-4.3918537E-3,-1.1980964E-2,-3.334241E-3,-1.1969039E-2,-1.4084627E-2,-2.620205E-3,2.0891259E-4,-8.605337E-2,5.5399228E-2,1.7298733E-1,-9.936095E-3,-5.5996075E-2,3.6624616E-1,2.2072332E-2,3.0278355E-1,-2.8255502E-2,1.394024E-1,-7.579433E-3,-1.3069244E-1,-6.8222836E-2,1.0797889E-1,4.125733E-2,-1.4034015E-1,-1.0657697E-1,-5.506677E-3,-1.6736586E-2,1.3378684E-1,-4.055099E-2,2.1095737E-3,3.8482082E-1,-1.5686568E-2,1.3333726E-2,-1.3641079E-1,1.6812767E-1,-2.0178616E-2,3.1888306E-1,-5.9472688E-2,1.374835E-1,-6.9924645E-2],"split_indices":[1274,3250,488,2574,2901,1049,2889,3391,3013,3340,1241,1264,3193,2972,1082,3502,916,770,3089,2474,2982,886,3040,1286,1131,0,1808,651,2969,1050,3264,0,0,0,0,0,0,0,0,0,0,0,0,0,0,0,0,0,0,0,0,0,0,0,0,0,0,0,0,0,0,0,0],"split_type":[0,0,0,0,0,0,0,0,0,0,0,0,0,0,0,0,0,0,0,0,0,0,0,0,0,0,0,0,0,0,0,0,0,0,0,0,0,0,0,0,0,0,0,0,0,0,0,0,0,0,0,0,0,0,0,0,0,0,0,0,0,0,0],"sum_hessian":[3.732E3,2.318E3,1.414E3,1.599E3,7.19E2,1.99E2,1.215E3,1.133E3,4.66E2,2.02E2,5.17E2,7.7E1,1.22E2,7.92E2,4.23E2,5.22E2,6.11E2,4E1,4.26E2,6.7E1,1.35E2,1.42E2,3.75E2,3E1,4.7E1,8E0,1.14E2,1.99E2,5.93E2,2.02E2,2.21E2,5.1E2,1.2E1,3.4E1,5.77E2,3E0,3.7E1,3.88E2,3.8E1,8E0,5.9E1,6.3E1,7.2E1,1.2E2,2.2E1,1.4E1,3.61E2,2.7E1,3E0,1.8E1,2.9E1,6E0,2E0,1.11E2,3E0,1.6E1,1.83E2,6.4E1,5.29E2,1.71E2,3.1E1,6.4E1,1.57E2],"tree_param":{"num_deleted":"0","num_feature":"4094","num_nodes":"63","size_leaf_vector":"1"}},{"base_weights":[8.394098E-2,-1.4319532E0,1.0044029E0,-1.7384149E0,3.2121868E0,-1.962758E-1,3.1734118E0,-1.0373571E0,-3.1600714E0,8.129083E0,-2.3866477E0,-2.157873E0,7.1650755E-1,7.61408E0,1.1784502E0,-2.2839968E0,-2.504489E-1,-1.7547532E0,-4.218266E0,-9.8993826E-1,3.3090484E-1,-3.3810763E0,3.039116E0,-5.305871E-1,-3.8690944E0,5.189107E0,1.8597107E-1,-2.1457937E-1,9.697175E0,-2.2080238E0,4.389278E0,-1.3173298E-2,-9.12996E-2,-2.5860287E-2,8.862555E-2,-7.7200584E-2,4.5115042E-2,5.646678E-2,-1.4257279E-1,1.8383516E-2,-5.5987198E-2,3.087603E-3,-1.1422586E-1,1.0626699E-1,4.4933343E-3,3.925657E-2,-9.380857E-2,-7.015018E-2,-1.5249042E-1,3.4493378E-1,2.7795393E-2,1.5277694E-1,-1.08935265E-2,1.2936215E-1,-3.5715297E-2,3.700303E-1,5.4984953E-2,6.883271E-2,-1.003833E-1,3.2925177E-2,3.109525E-1],"categories":[],"categories_nodes":[],"categories_segments":[],"categories_sizes":[],"default_left":[0,0,0,0,0,0,0,0,0,0,0,0,0,0,0,0,0,0,0,0,0,0,0,0,0,0,0,0,0,0,0,0,0,0,0,0,0,0,0,0,0,0,0,0,0,0,0,0,0,0,0,0,0,0,0,0,0,0,0,0,0],"id":24,"left_children":[1,3,5,7,9,11,13,15,17,19,21,23,25,27,29,31,33,35,37,39,-1,41,43,45,47,49,51,53,55,57,59,-1,-1,-1,-1,-1,-1,-1,-1,-1,-1,-1,-1,-1,-1,-1,-1,-1,-1,-1,-1,-1,-1,-1,-1,-1,-1,-1,-1,-1,-1],"loss_changes":[5.158509E3,2.0266287E3,5.993869E3,1.287907E3,2.5809111E3,2.672963E3,7.20155E3,8.7001544E2,5.8975244E2,9.385979E2,3.2385913E2,1.3054746E3,2.4134302E3,4.138503E3,6.306986E3,3.141803E2,8.926371E2,3.900249E2,2.299336E2,2.3102005E1,0E0,1.6928589E1,3.203827E0,1.0314761E3,2.4059473E2,2.4303254E3,2.1364946E3,2.4691037E2,2.394795E3,1.0827627E3,5.04469E3,0E0,0E0,0E0,0E0,0E0,0E0,0E0,0E0,0E0,0E0,0E0,0E0,0E0,0E0,0E0,0E0,0E0,0E0,0E0,0E0,0E0,0E0,0E0,0E0,0E0,0E0,0E0,0E0,0E0,0E0],"parents":[2147483647,0,0,1,1,2,2,3,3,4,4,5,5,6,6,7,7,8,8,9,9,10,10,11,11,12,12,13,13,14,14,15,15,16,16,17,17,18,18,19,19,21,21,22,22,23,23,24,24,25,25,26,26,27,27,28,28,29,29,30,30],"right_children":[2,4,6,8,10,12,14,16,18,20,22,24,26,28,30,32,34,36,38,40,-1,42,44,46,48,50,52,54,56,58,60,-1,-1,-1,-1,-1,-1,-1,-1,-1,-1,-1,-1,-1,-1,-1,-1,-1,-1,-1,-1,-1,-1,-1,-1,-1,-1,-1,-1,-1,-1],"split_conditions":[4.508662E-3,1.8878853E-2,-1.1996693E-2,-3.0311698E-3,-1.2069968E-2,-1.5810877E-2,-8.106591E-3,-9.003033E-3,-1.3318634E-2,-7.5629386E-3,2.5980882E-2,-1.2730993E-2,-9.363567E-3,-2.925257E-2,-3.7894084E-3,-1.2777058E-2,-1.2267996E-2,4.77569E-3,-1.9408723E-2,-1.855793E-2,3.3090484E-1,-1.0678015E-1,-4.580898E-2,-1.0817963E-2,-2.3740418E-3,-3.4022336E-3,-1.5684882E-2,-4.27559E-2,-1.4194534E-3,-7.109841E-3,-6.0136843E-4,-1.3173298E-2,-9.12996E-2,-2.5860287E-2,8.862555E-2,-7.7200584E-2,4.5115042E-2,5.646678E-2,-1.4257279E-1,1.8383516E-2,-5.5987198E-2,3.087603E-3,-1.1422586E-1,1.0626699E-1,4.4933343E-3,3.925657E-2,-9.380857E-2,-7.015018E-2,-1.5249042E-1,3.4493378E-1,2.7795393E-2,1.5277694E-1,-1.08935265E-2,1.2936215E-1,-3.5715297E-2,3.700303E-1,5.4984953E-2,6.883271E-2,-1.003833E-1,3.2925177E-2,3.109525E-1],"split_indices":[1117,3321,2909,1663,2945,3330,660,762,3153,1674,2795,2898,716,1253,685,610,3300,3277,3165,2055,0,3337,0,3322,3249,1101,2535,3291,1245,518,698,0,0,0,0,0,0,0,0,0,0,0,0,0,0,0,0,0,0,0,0,0,0,0,0,0,0,0,0,0,0],"split_type":[0,0,0,0,0,0,0,0,0,0,0,0,0,0,0,0,0,0,0,0,0,0,0,0,0,0,0,0,0,0,0,0,0,0,0,0,0,0,0,0,0,0,0,0,0,0,0,0,0,0,0,0,0,0,0,0,0,0,0,0,0],"sum_hessian":[3.683E3,1.39E3,2.293E3,1.308E3,8.2E1,1.48E3,8.13E2,8.84E2,4.24E2,4.2E1,4E1,4.67E2,1.013E3,2.46E2,5.67E2,3.37E2,5.47E2,1.9E2,2.34E2,8E0,3.4E1,3.6E1,4E0,2.44E2,2.23E2,1.01E2,9.12E2,5.3E1,1.93E2,2.77E2,2.9E2,7.3E1,2.64E2,4.67E2,8E1,1.61E2,2.9E1,3E0,2.31E2,3E0,5E0,1E0,3.5E1,3E0,1E0,1.42E2,1.02E2,7.7E1,1.46E2,4.1E1,6E1,8.9E1,8.23E2,5E0,4.8E1,1.59E2,3.4E1,4.4E1,2.33E2,1.79E2,1.11E2],"tree_param":{"num_deleted":"0","num_feature":"4094","num_nodes":"61","size_leaf_vector":"1"}},{"base_weights":[7.529613E-2,-4.4008946E-1,2.475236E0,5.5946434E-1,-1.6534115E0,6.0149884E0,-5.514814E-2,-3.7850016E-1,4.02699E0,2.7674118E-1,-2.4263136E0,9.16859E0,1.1006207E0,-2.2906108E0,4.540995E0,-1.222143E0,1.6497579E0,8.280018E0,1.2390592E0,3.4515026E0,-1.4736278E0,1.7116852E0,-2.9364862E0,1.09738455E1,2.0194519E0,8.637609E0,-3.5711488E-1,1.4159174E0,-2.6468563E0,-1.4304227E0,7.307787E0,-8.725796E-2,7.898557E-3,-3.1212019E-2,1.2339308E-1,7.396306E-2,3.8890585E-1,-1.8438593E-2,2.3530719E-1,2.5181717E-1,-2.0468656E-3,3.5363764E-2,-7.421455E-2,-6.744758E-2,1.6940814E-1,-2.730429E-2,-1.0723068E-1,6.766297E-2,3.7802762E-1,1.4014044E-1,-4.5289937E-2,-1.8506618E-2,3.0756783E-1,5.7187233E-2,